solver_type L2R_L1LOSS_SVC_DUAL
nr_class 8
label 0 5 2 6 3 4 1 7
nr_feature 3303
bias 0.000000000000000
w
0 0 0 0 0 0 0 0 
0 0 0 0 0 0 0 0 
0 0 0 0 0 0 0 0 
0 0 0 0 0 0 0 0 
-8.799718409010884e-05 -8.799718409011060e-05 -8.799718409010887e-05 -8.799718409010884e-05 -8.799718409010711e-05 -8.799718409010711e-05 -8.799718409011058e-05 -8.799718409010711e-05 
-8.799718409010884e-05 -8.799718409011060e-05 -8.799718409010887e-05 -8.799718409010884e-05 -8.799718409010711e-05 -8.799718409010711e-05 -8.799718409011058e-05 -8.799718409010711e-05 
-0.0005279831045406505 -0.0005279831045406640 -0.0005279831045406497 -0.0005279831045406495 -0.0005279831045406388 -0.0005279831045406403 -0.0005279831045406616 -0.0005279831045406408 
0 0 0 0 0 0 0 0 
0 0 0 0 0 0 0 0 
0 0 0 0 0 0 0 0 
0 0 0 0 0 0 0 0 
0 0 0 0 0 0 0 0 
0 0 0 0 0 0 0 0 
0 0 0 0 0 0 0 0 
0 0 0 0 0 0 0 0 
0 0 0 0 0 0 0 0 
0 0 0 0 0 0 0 0 
0 0 0 0 0 0 0 0 
0 0 0 0 0 0 0 0 
0 0 0 0 0 0 0 0 
0 0 0 0 0 0 0 0 
0 0 0 0 0 0 0 0 
0 0 0 0 0 0 0 0 
0 0 0 0 0 0 0 0 
0 0 0 0 0 0 0 0 
0 0 0 0 0 0 0 0 
-8.799718409010884e-05 -8.799718409011060e-05 -8.799718409010887e-05 -8.799718409010884e-05 -8.799718409010711e-05 -8.799718409010711e-05 -8.799718409011058e-05 -8.799718409010711e-05 
0 0 0 0 0 0 0 0 
0 0 0 0 0 0 0 0 
-0.0001759943681802177 -0.0001759943681802212 -0.0001759943681802177 -0.0001759943681802177 -0.0001759943681802142 -0.0001759943681802142 -0.0001759943681802212 -0.0001759943681802142 
0 0 0 0 0 0 0 0 
0 0 0 0 0 0 0 0 
0 0 0 0 0 0 0 0 
0 0 0 0 0 0 0 0 
0 0 0 0 0 0 0 0 
0 0 0 0 0 0 0 0 
0 0 0 0 0 0 0 0 
0 0 0 0 0 0 0 0 
0 0 0 0 0 0 0 0 
0 0 0 0 0 0 0 0 
0 0 0 0 0 0 0 0 
0 0 0 0 0 0 0 0 
0 0 0 0 0 0 0 0 
0 0 0 0 0 0 0 0 
0 0 0 0 0 0 0 0 
-8.799718409010884e-05 -8.799718409011060e-05 -8.799718409010887e-05 -8.799718409010884e-05 -8.799718409010711e-05 -8.799718409010711e-05 -8.799718409011058e-05 -8.799718409010711e-05 
-8.799718409010884e-05 -8.799718409011060e-05 -8.799718409010887e-05 -8.799718409010884e-05 -8.799718409010711e-05 -8.799718409010711e-05 -8.799718409011058e-05 -8.799718409010711e-05 
0 0 0 0 0 0 0 0 
0 0 0 0 0 0 0 0 
0 0 0 0 0 0 0 0 
0 0 0 0 0 0 0 0 
-0.0001759943681802177 -0.0001759943681802212 -0.0001759943681802177 -0.0001759943681802177 -0.0001759943681802142 -0.0001759943681802142 -0.0001759943681802212 -0.0001759943681802142 
-0.0001759943681802177 -0.0001759943681802212 -0.0001759943681802177 -0.0001759943681802177 -0.0001759943681802142 -0.0001759943681802142 -0.0001759943681802212 -0.0001759943681802142 
0 0 0 0 0 0 0 0 
-8.799718409010884e-05 -8.799718409011060e-05 -8.799718409010887e-05 -8.799718409010884e-05 -8.799718409010711e-05 -8.799718409010711e-05 -8.799718409011058e-05 -8.799718409010711e-05 
-8.799718409010884e-05 -8.799718409011060e-05 -8.799718409010887e-05 -8.799718409010884e-05 -8.799718409010711e-05 -8.799718409010711e-05 -8.799718409011058e-05 -8.799718409010711e-05 
-0.0006159802886307645 -0.0006159802886307779 -0.0006159802886307623 -0.0006159802886307628 -0.0006159802886307500 -0.0006159802886307517 -0.0006159802886307788 -0.0006159802886307539 
0 0 0 0 0 0 0 0 
0 0 0 0 0 0 0 0 
0 0 0 0 0 0 0 0 
0 0 0 0 0 0 0 0 
0 0 0 0 0 0 0 0 
0 0 0 0 0 0 0 0 
-0.0002639915522703253 -0.0002639915522703320 -0.0002639915522703248 -0.0002639915522703247 -0.0002639915522703194 -0.0002639915522703202 -0.0002639915522703308 -0.0002639915522703204 
0 0 0 0 0 0 0 0 
0 0 0 0 0 0 0 0 
0 0 0 0 0 0 0 0 
0 0 0 0 0 0 0 0 
-0.0001759943681802177 -0.0001759943681802212 -0.0001759943681802177 -0.0001759943681802177 -0.0001759943681802142 -0.0001759943681802142 -0.0001759943681802212 -0.0001759943681802142 
0 0 0 0 0 0 0 0 
0 0 0 0 0 0 0 0 
0 0 0 0 0 0 0 0 
-8.799718409010884e-05 -8.799718409011060e-05 -8.799718409010887e-05 -8.799718409010884e-05 -8.799718409010711e-05 -8.799718409010711e-05 -8.799718409011058e-05 -8.799718409010711e-05 
0 0 0 0 0 0 0 0 
-8.799718409010884e-05 -8.799718409011060e-05 -8.799718409010887e-05 -8.799718409010884e-05 -8.799718409010711e-05 -8.799718409010711e-05 -8.799718409011058e-05 -8.799718409010711e-05 
0 0 0 0 0 0 0 0 
0 0 0 0 0 0 0 0 
0 0 0 0 0 0 0 0 
-8.799718409010884e-05 -8.799718409011060e-05 -8.799718409010887e-05 -8.799718409010884e-05 -8.799718409010711e-05 -8.799718409010711e-05 -8.799718409011058e-05 -8.799718409010711e-05 
0 0 0 0 0 0 0 0 
0 0 0 0 0 0 0 0 
-0.0002639915522703253 -0.0002639915522703320 -0.0002639915522703248 -0.0002639915522703247 -0.0002639915522703194 -0.0002639915522703202 -0.0002639915522703308 -0.0002639915522703204 
0 0 0 0 0 0 0 0 
0 0 0 0 0 0 0 0 
0 0 0 0 0 0 0 0 
0 0 0 0 0 0 0 0 
0 0 0 0 0 0 0 0 
-8.799718409010884e-05 -8.799718409011060e-05 -8.799718409010887e-05 -8.799718409010884e-05 -8.799718409010711e-05 -8.799718409010711e-05 -8.799718409011058e-05 -8.799718409010711e-05 
0 0 0 0 0 0 0 0 
0 0 0 0 0 0 0 0 
0 0 0 0 0 0 0 0 
0 0 0 0 0 0 0 0 
0 0 0 0 0 0 0 0 
0 0 0 0 0 0 0 0 
0 0 0 0 0 0 0 0 
-0.0007039774727208707 -0.0007039774727208848 -0.0007039774727208710 -0.0007039774727208707 -0.0007039774727208569 -0.0007039774727208569 -0.0007039774727208846 -0.0007039774727208569 
0 0 0 0 0 0 0 0 
0 0 0 0 0 0 0 0 
-8.799718409010884e-05 -8.799718409011060e-05 -8.799718409010887e-05 -8.799718409010884e-05 -8.799718409010711e-05 -8.799718409010711e-05 -8.799718409011058e-05 -8.799718409010711e-05 
0 0 0 0 0 0 0 0 
0 0 0 0 0 0 0 0 
0 0 0 0 0 0 0 0 
0 0 0 0 0 0 0 0 
0 0 0 0 0 0 0 0 
0 0 0 0 0 0 0 0 
0 0 0 0 0 0 0 0 
0 0 0 0 0 0 0 0 
-8.799718409010884e-05 -8.799718409011060e-05 -8.799718409010887e-05 -8.799718409010884e-05 -8.799718409010711e-05 -8.799718409010711e-05 -8.799718409011058e-05 -8.799718409010711e-05 
0 0 0 0 0 0 0 0 
0 0 0 0 0 0 0 0 
0 0 0 0 0 0 0 0 
0 0 0 0 0 0 0 0 
0 0 0 0 0 0 0 0 
0 0 0 0 0 0 0 0 
0 0 0 0 0 0 0 0 
0 0 0 0 0 0 0 0 
0 0 0 0 0 0 0 0 
0 0 0 0 0 0 0 0 
-8.799718409010884e-05 -8.799718409011060e-05 -8.799718409010887e-05 -8.799718409010884e-05 -8.799718409010711e-05 -8.799718409010711e-05 -8.799718409011058e-05 -8.799718409010711e-05 
0 0 0 0 0 0 0 0 
0 0 0 0 0 0 0 0 
0 0 0 0 0 0 0 0 
-8.799718409010884e-05 -8.799718409011060e-05 -8.799718409010887e-05 -8.799718409010884e-05 -8.799718409010711e-05 -8.799718409010711e-05 -8.799718409011058e-05 -8.799718409010711e-05 
-8.799718409010884e-05 -8.799718409011060e-05 -8.799718409010887e-05 -8.799718409010884e-05 -8.799718409010711e-05 -8.799718409010711e-05 -8.799718409011058e-05 -8.799718409010711e-05 
0 0 0 0 0 0 0 0 
0 0 0 0 0 0 0 0 
-0.0005279831045406505 -0.0005279831045406640 -0.0005279831045406497 -0.0005279831045406495 -0.0005279831045406388 -0.0005279831045406403 -0.0005279831045406616 -0.0005279831045406408 
0 0 0 0 0 0 0 0 
-0.0002639915522703253 -0.0002639915522703320 -0.0002639915522703248 -0.0002639915522703247 -0.0002639915522703194 -0.0002639915522703202 -0.0002639915522703308 -0.0002639915522703204 
0 0 0 0 0 0 0 0 
0 0 0 0 0 0 0 0 
0 0 0 0 0 0 0 0 
0 0 0 0 0 0 0 0 
0 0 0 0 0 0 0 0 
0 0 0 0 0 0 0 0 
0 0 0 0 0 0 0 0 
-8.799718409010884e-05 -8.799718409011060e-05 -8.799718409010887e-05 -8.799718409010884e-05 -8.799718409010711e-05 -8.799718409010711e-05 -8.799718409011058e-05 -8.799718409010711e-05 
-0.0001759943681802177 -0.0001759943681802212 -0.0001759943681802177 -0.0001759943681802177 -0.0001759943681802142 -0.0001759943681802142 -0.0001759943681802212 -0.0001759943681802142 
0 0 0 0 0 0 0 0 
0 0 0 0 0 0 0 0 
0 0 0 0 0 0 0 0 
-8.799718409010884e-05 -8.799718409011060e-05 -8.799718409010887e-05 -8.799718409010884e-05 -8.799718409010711e-05 -8.799718409010711e-05 -8.799718409011058e-05 -8.799718409010711e-05 
0 0 0 0 0 0 0 0 
-0.0001759943681802177 -0.0001759943681802212 -0.0001759943681802177 -0.0001759943681802177 -0.0001759943681802142 -0.0001759943681802142 -0.0001759943681802212 -0.0001759943681802142 
0 0 0 0 0 0 0 0 
0 0 0 0 0 0 0 0 
-8.799718409010884e-05 -8.799718409011060e-05 -8.799718409010887e-05 -8.799718409010884e-05 -8.799718409010711e-05 -8.799718409010711e-05 -8.799718409011058e-05 -8.799718409010711e-05 
0 0 0 0 0 0 0 0 
-0.0003519887363604354 -0.0003519887363604424 -0.0003519887363604355 -0.0003519887363604354 -0.0003519887363604284 -0.0003519887363604284 -0.0003519887363604423 -0.0003519887363604284 
-0.0001759943681802177 -0.0001759943681802212 -0.0001759943681802177 -0.0001759943681802177 -0.0001759943681802142 -0.0001759943681802142 -0.0001759943681802212 -0.0001759943681802142 
0 0 0 0 0 0 0 0 
0 0 0 0 0 0 0 0 
0 0 0 0 0 0 0 0 
-8.799718409010884e-05 -8.799718409011060e-05 -8.799718409010887e-05 -8.799718409010884e-05 -8.799718409010711e-05 -8.799718409010711e-05 -8.799718409011058e-05 -8.799718409010711e-05 
-8.799718409010884e-05 -8.799718409011060e-05 -8.799718409010887e-05 -8.799718409010884e-05 -8.799718409010711e-05 -8.799718409010711e-05 -8.799718409011058e-05 -8.799718409010711e-05 
0 0 0 0 0 0 0 0 
0 0 0 0 0 0 0 0 
0 0 0 0 0 0 0 0 
-0.001055966209081301 -0.001055966209081328 -0.001055966209081299 -0.001055966209081299 -0.001055966209081278 -0.001055966209081281 -0.001055966209081323 -0.001055966209081282 
0 0 0 0 0 0 0 0 
0 0 0 0 0 0 0 0 
0 0 0 0 0 0 0 0 
0 0 0 0 0 0 0 0 
0 0 0 0 0 0 0 0 
-0.0001759943681802177 -0.0001759943681802212 -0.0001759943681802177 -0.0001759943681802177 -0.0001759943681802142 -0.0001759943681802142 -0.0001759943681802212 -0.0001759943681802142 
0 0 0 0 0 0 0 0 
0 0 0 0 0 0 0 0 
0 0 0 0 0 0 0 0 
0 0 0 0 0 0 0 0 
0 0 0 0 0 0 0 0 
-8.799718409010884e-05 -8.799718409011060e-05 -8.799718409010887e-05 -8.799718409010884e-05 -8.799718409010711e-05 -8.799718409010711e-05 -8.799718409011058e-05 -8.799718409010711e-05 
0 0 0 0 0 0 0 0 
0 0 0 0 0 0 0 0 
0 0 0 0 0 0 0 0 
0 0 0 0 0 0 0 0 
0 0 0 0 0 0 0 0 
0 0 0 0 0 0 0 0 
0 0 0 0 0 0 0 0 
0 0 0 0 0 0 0 0 
0 0 0 0 0 0 0 0 
0 0 0 0 0 0 0 0 
0 0 0 0 0 0 0 0 
0 0 0 0 0 0 0 0 
0 0 0 0 0 0 0 0 
0 0 0 0 0 0 0 0 
0 0 0 0 0 0 0 0 
0 0 0 0 0 0 0 0 
0 0 0 0 0 0 0 0 
0 0 0 0 0 0 0 0 
0 0 0 0 0 0 0 0 
0 0 0 0 0 0 0 0 
0 0 0 0 0 0 0 0 
0 0 0 0 0 0 0 0 
0 0 0 0 0 0 0 0 
0 0 0 0 0 0 0 0 
-0.0002639915522703253 -0.0002639915522703320 -0.0002639915522703248 -0.0002639915522703247 -0.0002639915522703194 -0.0002639915522703202 -0.0002639915522703308 -0.0002639915522703204 
-8.799718409010884e-05 -8.799718409011060e-05 -8.799718409010887e-05 -8.799718409010884e-05 -8.799718409010711e-05 -8.799718409010711e-05 -8.799718409011058e-05 -8.799718409010711e-05 
-8.799718409010884e-05 -8.799718409011060e-05 -8.799718409010887e-05 -8.799718409010884e-05 -8.799718409010711e-05 -8.799718409010711e-05 -8.799718409011058e-05 -8.799718409010711e-05 
0 0 0 0 0 0 0 0 
0 0 0 0 0 0 0 0 
0 0 0 0 0 0 0 0 
0 0 0 0 0 0 0 0 
0 0 0 0 0 0 0 0 
0 0 0 0 0 0 0 0 
0 0 0 0 0 0 0 0 
0 0 0 0 0 0 0 0 
0 0 0 0 0 0 0 0 
-0.0001759943681802177 -0.0001759943681802212 -0.0001759943681802177 -0.0001759943681802177 -0.0001759943681802142 -0.0001759943681802142 -0.0001759943681802212 -0.0001759943681802142 
-0.0004399859204505455 -0.0004399859204505529 -0.0004399859204505461 -0.0004399859204505460 -0.0004399859204505375 -0.0004399859204505367 -0.0004399859204505538 -0.0004399859204505365 
-0.0001759943681802177 -0.0001759943681802212 -0.0001759943681802177 -0.0001759943681802177 -0.0001759943681802142 -0.0001759943681802142 -0.0001759943681802212 -0.0001759943681802142 
0 0 0 0 0 0 0 0 
0 0 0 0 0 0 0 0 
0 0 0 0 0 0 0 0 
0 0 0 0 0 0 0 0 
-8.799718409010884e-05 -8.799718409011060e-05 -8.799718409010887e-05 -8.799718409010884e-05 -8.799718409010711e-05 -8.799718409010711e-05 -8.799718409011058e-05 -8.799718409010711e-05 
0 0 0 0 0 0 0 0 
0 0 0 0 0 0 0 0 
0 0 0 0 0 0 0 0 
0 0 0 0 0 0 0 0 
0 0 0 0 0 0 0 0 
0 0 0 0 0 0 0 0 
0 0 0 0 0 0 0 0 
0 0 0 0 0 0 0 0 
-0.0006159802886307645 -0.0006159802886307779 -0.0006159802886307623 -0.0006159802886307628 -0.0006159802886307500 -0.0006159802886307517 -0.0006159802886307788 -0.0006159802886307539 
0 0 0 0 0 0 0 0 
0 0 0 0 0 0 0 0 
-0.0002639915522703253 -0.0002639915522703320 -0.0002639915522703248 -0.0002639915522703247 -0.0002639915522703194 -0.0002639915522703202 -0.0002639915522703308 -0.0002639915522703204 
0 0 0 0 0 0 0 0 
-0.0001759943681802177 -0.0001759943681802212 -0.0001759943681802177 -0.0001759943681802177 -0.0001759943681802142 -0.0001759943681802142 -0.0001759943681802212 -0.0001759943681802142 
0 0 0 0 0 0 0 0 
0 0 0 0 0 0 0 0 
0 0 0 0 0 0 0 0 
-0.0002639915522703253 -0.0002639915522703320 -0.0002639915522703248 -0.0002639915522703247 -0.0002639915522703194 -0.0002639915522703202 -0.0002639915522703308 -0.0002639915522703204 
0 0 0 0 0 0 0 0 
0 0 0 0 0 0 0 0 
0 0 0 0 0 0 0 0 
0 0 0 0 0 0 0 0 
-8.799718409010884e-05 -8.799718409011060e-05 -8.799718409010887e-05 -8.799718409010884e-05 -8.799718409010711e-05 -8.799718409010711e-05 -8.799718409011058e-05 -8.799718409010711e-05 
0 0 0 0 0 0 0 0 
0 0 0 0 0 0 0 0 
0 0 0 0 0 0 0 0 
0 0 0 0 0 0 0 0 
0 0 0 0 0 0 0 0 
0 0 0 0 0 0 0 0 
0 0 0 0 0 0 0 0 
-0.0008799718409010910 -0.0008799718409011057 -0.0008799718409010923 -0.0008799718409010920 -0.0008799718409010749 -0.0008799718409010734 -0.0008799718409011077 -0.0008799718409010730 
0 0 0 0 0 0 0 0 
0 0 0 0 0 0 0 0 
0 0 0 0 0 0 0 0 
0 0 0 0 0 0 0 0 
0 0 0 0 0 0 0 0 
-8.799718409010884e-05 -8.799718409011060e-05 -8.799718409010887e-05 -8.799718409010884e-05 -8.799718409010711e-05 -8.799718409010711e-05 -8.799718409011058e-05 -8.799718409010711e-05 
0 0 0 0 0 0 0 0 
0 0 0 0 0 0 0 0 
0 0 0 0 0 0 0 0 
-0.0003519887363604354 -0.0003519887363604424 -0.0003519887363604355 -0.0003519887363604354 -0.0003519887363604284 -0.0003519887363604284 -0.0003519887363604423 -0.0003519887363604284 
0 0 0 0 0 0 0 0 
0 0 0 0 0 0 0 0 
0 0 0 0 0 0 0 0 
-8.799718409010884e-05 -8.799718409011060e-05 -8.799718409010887e-05 -8.799718409010884e-05 -8.799718409010711e-05 -8.799718409010711e-05 -8.799718409011058e-05 -8.799718409010711e-05 
0 0 0 0 0 0 0 0 
0 0 0 0 0 0 0 0 
0 0 0 0 0 0 0 0 
0 0 0 0 0 0 0 0 
-8.799718409010884e-05 -8.799718409011060e-05 -8.799718409010887e-05 -8.799718409010884e-05 -8.799718409010711e-05 -8.799718409010711e-05 -8.799718409011058e-05 -8.799718409010711e-05 
0 0 0 0 0 0 0 0 
0 0 0 0 0 0 0 0 
0 0 0 0 0 0 0 0 
0 0 0 0 0 0 0 0 
0 0 0 0 0 0 0 0 
-0.002111932418162602 -0.002111932418162656 -0.002111932418162599 -0.002111932418162598 -0.002111932418162555 -0.002111932418162561 -0.002111932418162646 -0.002111932418162563 
0 0 0 0 0 0 0 0 
0 0 0 0 0 0 0 0 
0 0 0 0 0 0 0 0 
0 0 0 0 0 0 0 0 
-8.799718409010884e-05 -8.799718409011060e-05 -8.799718409010887e-05 -8.799718409010884e-05 -8.799718409010711e-05 -8.799718409010711e-05 -8.799718409011058e-05 -8.799718409010711e-05 
-8.799718409010884e-05 -8.799718409011060e-05 -8.799718409010887e-05 -8.799718409010884e-05 -8.799718409010711e-05 -8.799718409010711e-05 -8.799718409011058e-05 -8.799718409010711e-05 
-8.799718409010884e-05 -8.799718409011060e-05 -8.799718409010887e-05 -8.799718409010884e-05 -8.799718409010711e-05 -8.799718409010711e-05 -8.799718409011058e-05 -8.799718409010711e-05 
0 0 0 0 0 0 0 0 
0 0 0 0 0 0 0 0 
0 0 0 0 0 0 0 0 
-8.799718409010884e-05 -8.799718409011060e-05 -8.799718409010887e-05 -8.799718409010884e-05 -8.799718409010711e-05 -8.799718409010711e-05 -8.799718409011058e-05 -8.799718409010711e-05 
0 0 0 0 0 0 0 0 
0 0 0 0 0 0 0 0 
0 0 0 0 0 0 0 0 
-8.799718409010884e-05 -8.799718409011060e-05 -8.799718409010887e-05 -8.799718409010884e-05 -8.799718409010711e-05 -8.799718409010711e-05 -8.799718409011058e-05 -8.799718409010711e-05 
0 0 0 0 0 0 0 0 
0 0 0 0 0 0 0 0 
0 0 0 0 0 0 0 0 
-8.799718409010884e-05 -8.799718409011060e-05 -8.799718409010887e-05 -8.799718409010884e-05 -8.799718409010711e-05 -8.799718409010711e-05 -8.799718409011058e-05 -8.799718409010711e-05 
0 0 0 0 0 0 0 0 
-0.0005279831045406505 -0.0005279831045406640 -0.0005279831045406497 -0.0005279831045406495 -0.0005279831045406388 -0.0005279831045406403 -0.0005279831045406616 -0.0005279831045406408 
0 0 0 0 0 0 0 0 
0 0 0 0 0 0 0 0 
-0.0002639915522703253 -0.0002639915522703320 -0.0002639915522703248 -0.0002639915522703247 -0.0002639915522703194 -0.0002639915522703202 -0.0002639915522703308 -0.0002639915522703204 
0 0 0 0 0 0 0 0 
0 0 0 0 0 0 0 0 
0 0 0 0 0 0 0 0 
0 0 0 0 0 0 0 0 
-8.799718409010884e-05 -8.799718409011060e-05 -8.799718409010887e-05 -8.799718409010884e-05 -8.799718409010711e-05 -8.799718409010711e-05 -8.799718409011058e-05 -8.799718409010711e-05 
0 0 0 0 0 0 0 0 
-0.0005279831045406505 -0.0005279831045406640 -0.0005279831045406497 -0.0005279831045406495 -0.0005279831045406388 -0.0005279831045406403 -0.0005279831045406616 -0.0005279831045406408 
0 0 0 0 0 0 0 0 
-0.0007039774727208707 -0.0007039774727208848 -0.0007039774727208710 -0.0007039774727208707 -0.0007039774727208569 -0.0007039774727208569 -0.0007039774727208846 -0.0007039774727208569 
-0.0001759943681802177 -0.0001759943681802212 -0.0001759943681802177 -0.0001759943681802177 -0.0001759943681802142 -0.0001759943681802142 -0.0001759943681802212 -0.0001759943681802142 
-0.0007039774727208707 -0.0007039774727208848 -0.0007039774727208710 -0.0007039774727208707 -0.0007039774727208569 -0.0007039774727208569 -0.0007039774727208846 -0.0007039774727208569 
0 0 0 0 0 0 0 0 
0 0 0 0 0 0 0 0 
0 0 0 0 0 0 0 0 
0 0 0 0 0 0 0 0 
0 0 0 0 0 0 0 0 
0 0 0 0 0 0 0 0 
0 0 0 0 0 0 0 0 
0 0 0 0 0 0 0 0 
0 0 0 0 0 0 0 0 
0 0 0 0 0 0 0 0 
0 0 0 0 0 0 0 0 
-0.0001759943681802177 -0.0001759943681802212 -0.0001759943681802177 -0.0001759943681802177 -0.0001759943681802142 -0.0001759943681802142 -0.0001759943681802212 -0.0001759943681802142 
0 0 0 0 0 0 0 0 
0 0 0 0 0 0 0 0 
-8.799718409010884e-05 -8.799718409011060e-05 -8.799718409010887e-05 -8.799718409010884e-05 -8.799718409010711e-05 -8.799718409010711e-05 -8.799718409011058e-05 -8.799718409010711e-05 
-8.799718409010884e-05 -8.799718409011060e-05 -8.799718409010887e-05 -8.799718409010884e-05 -8.799718409010711e-05 -8.799718409010711e-05 -8.799718409011058e-05 -8.799718409010711e-05 
0 0 0 0 0 0 0 0 
-0.0001759943681802177 -0.0001759943681802212 -0.0001759943681802177 -0.0001759943681802177 -0.0001759943681802142 -0.0001759943681802142 -0.0001759943681802212 -0.0001759943681802142 
0 0 0 0 0 0 0 0 
0 0 0 0 0 0 0 0 
0 0 0 0 0 0 0 0 
0 0 0 0 0 0 0 0 
0 0 0 0 0 0 0 0 
-8.799718409010884e-05 -8.799718409011060e-05 -8.799718409010887e-05 -8.799718409010884e-05 -8.799718409010711e-05 -8.799718409010711e-05 -8.799718409011058e-05 -8.799718409010711e-05 
0 0 0 0 0 0 0 0 
0 0 0 0 0 0 0 0 
0 0 0 0 0 0 0 0 
0 0 0 0 0 0 0 0 
-0.0007039774727208707 -0.0007039774727208848 -0.0007039774727208710 -0.0007039774727208707 -0.0007039774727208569 -0.0007039774727208569 -0.0007039774727208846 -0.0007039774727208569 
0 0 0 0 0 0 0 0 
0 0 0 0 0 0 0 0 
0 0 0 0 0 0 0 0 
0 0 0 0 0 0 0 0 
0 0 0 0 0 0 0 0 
0 0 0 0 0 0 0 0 
-8.799718409010884e-05 -8.799718409011060e-05 -8.799718409010887e-05 -8.799718409010884e-05 -8.799718409010711e-05 -8.799718409010711e-05 -8.799718409011058e-05 -8.799718409010711e-05 
0 0 0 0 0 0 0 0 
0 0 0 0 0 0 0 0 
0 0 0 0 0 0 0 0 
0 0 0 0 0 0 0 0 
-8.799718409010884e-05 -8.799718409011060e-05 -8.799718409010887e-05 -8.799718409010884e-05 -8.799718409010711e-05 -8.799718409010711e-05 -8.799718409011058e-05 -8.799718409010711e-05 
-0.0005279831045406505 -0.0005279831045406640 -0.0005279831045406497 -0.0005279831045406495 -0.0005279831045406388 -0.0005279831045406403 -0.0005279831045406616 -0.0005279831045406408 
0 0 0 0 0 0 0 0 
0 0 0 0 0 0 0 0 
0 0 0 0 0 0 0 0 
0 0 0 0 0 0 0 0 
0 0 0 0 0 0 0 0 
-8.799718409010884e-05 -8.799718409011060e-05 -8.799718409010887e-05 -8.799718409010884e-05 -8.799718409010711e-05 -8.799718409010711e-05 -8.799718409011058e-05 -8.799718409010711e-05 
0 0 0 0 0 0 0 0 
0 0 0 0 0 0 0 0 
0 0 0 0 0 0 0 0 
0 0 0 0 0 0 0 0 
0 0 0 0 0 0 0 0 
0 0 0 0 0 0 0 0 
0 0 0 0 0 0 0 0 
-8.799718409010884e-05 -8.799718409011060e-05 -8.799718409010887e-05 -8.799718409010884e-05 -8.799718409010711e-05 -8.799718409010711e-05 -8.799718409011058e-05 -8.799718409010711e-05 
0 0 0 0 0 0 0 0 
0 0 0 0 0 0 0 0 
0 0 0 0 0 0 0 0 
-8.799718409010884e-05 -8.799718409011060e-05 -8.799718409010887e-05 -8.799718409010884e-05 -8.799718409010711e-05 -8.799718409010711e-05 -8.799718409011058e-05 -8.799718409010711e-05 
0 0 0 0 0 0 0 0 
-8.799718409010884e-05 -8.799718409011060e-05 -8.799718409010887e-05 -8.799718409010884e-05 -8.799718409010711e-05 -8.799718409010711e-05 -8.799718409011058e-05 -8.799718409010711e-05 
0 0 0 0 0 0 0 0 
0 0 0 0 0 0 0 0 
0 0 0 0 0 0 0 0 
-0.0002639915522703253 -0.0002639915522703320 -0.0002639915522703248 -0.0002639915522703247 -0.0002639915522703194 -0.0002639915522703202 -0.0002639915522703308 -0.0002639915522703204 
0 0 0 0 0 0 0 0 
0 0 0 0 0 0 0 0 
-8.799718409010884e-05 -8.799718409011060e-05 -8.799718409010887e-05 -8.799718409010884e-05 -8.799718409010711e-05 -8.799718409010711e-05 -8.799718409011058e-05 -8.799718409010711e-05 
0 0 0 0 0 0 0 0 
-0.0004399859204505455 -0.0004399859204505529 -0.0004399859204505461 -0.0004399859204505460 -0.0004399859204505375 -0.0004399859204505367 -0.0004399859204505538 -0.0004399859204505365 
0 0 0 0 0 0 0 0 
0 0 0 0 0 0 0 0 
-0.0002639915522703253 -0.0002639915522703320 -0.0002639915522703248 -0.0002639915522703247 -0.0002639915522703194 -0.0002639915522703202 -0.0002639915522703308 -0.0002639915522703204 
0 0 0 0 0 0 0 0 
0 0 0 0 0 0 0 0 
0 0 0 0 0 0 0 0 
0 0 0 0 0 0 0 0 
0 0 0 0 0 0 0 0 
-0.0003519887363604354 -0.0003519887363604424 -0.0003519887363604355 -0.0003519887363604354 -0.0003519887363604284 -0.0003519887363604284 -0.0003519887363604423 -0.0003519887363604284 
0 0 0 0 0 0 0 0 
0 0 0 0 0 0 0 0 
0 0 0 0 0 0 0 0 
-8.799718409010884e-05 -8.799718409011060e-05 -8.799718409010887e-05 -8.799718409010884e-05 -8.799718409010711e-05 -8.799718409010711e-05 -8.799718409011058e-05 -8.799718409010711e-05 
0 0 0 0 0 0 0 0 
0 0 0 0 0 0 0 0 
0 0 0 0 0 0 0 0 
0 0 0 0 0 0 0 0 
0 0 0 0 0 0 0 0 
0 0 0 0 0 0 0 0 
0 0 0 0 0 0 0 0 
-8.799718409010884e-05 -8.799718409011060e-05 -8.799718409010887e-05 -8.799718409010884e-05 -8.799718409010711e-05 -8.799718409010711e-05 -8.799718409011058e-05 -8.799718409010711e-05 
0 0 0 0 0 0 0 0 
-8.799718409010884e-05 -8.799718409011060e-05 -8.799718409010887e-05 -8.799718409010884e-05 -8.799718409010711e-05 -8.799718409010711e-05 -8.799718409011058e-05 -8.799718409010711e-05 
0 0 0 0 0 0 0 0 
0 0 0 0 0 0 0 0 
0 0 0 0 0 0 0 0 
0 0 0 0 0 0 0 0 
-8.799718409010884e-05 -8.799718409011060e-05 -8.799718409010887e-05 -8.799718409010884e-05 -8.799718409010711e-05 -8.799718409010711e-05 -8.799718409011058e-05 -8.799718409010711e-05 
-0.0001759943681802177 -0.0001759943681802212 -0.0001759943681802177 -0.0001759943681802177 -0.0001759943681802142 -0.0001759943681802142 -0.0001759943681802212 -0.0001759943681802142 
0 0 0 0 0 0 0 0 
0 0 0 0 0 0 0 0 
0 0 0 0 0 0 0 0 
0 0 0 0 0 0 0 0 
0 0 0 0 0 0 0 0 
-8.799718409010884e-05 -8.799718409011060e-05 -8.799718409010887e-05 -8.799718409010884e-05 -8.799718409010711e-05 -8.799718409010711e-05 -8.799718409011058e-05 -8.799718409010711e-05 
0 0 0 0 0 0 0 0 
0 0 0 0 0 0 0 0 
0 0 0 0 0 0 0 0 
0 0 0 0 0 0 0 0 
0 0 0 0 0 0 0 0 
-8.799718409010884e-05 -8.799718409011060e-05 -8.799718409010887e-05 -8.799718409010884e-05 -8.799718409010711e-05 -8.799718409010711e-05 -8.799718409011058e-05 -8.799718409010711e-05 
-0.0001759943681802177 -0.0001759943681802212 -0.0001759943681802177 -0.0001759943681802177 -0.0001759943681802142 -0.0001759943681802142 -0.0001759943681802212 -0.0001759943681802142 
0 0 0 0 0 0 0 0 
0 0 0 0 0 0 0 0 
0 0 0 0 0 0 0 0 
0 0 0 0 0 0 0 0 
-0.0002639915522703253 -0.0002639915522703320 -0.0002639915522703248 -0.0002639915522703247 -0.0002639915522703194 -0.0002639915522703202 -0.0002639915522703308 -0.0002639915522703204 
0 0 0 0 0 0 0 0 
0 0 0 0 0 0 0 0 
0 0 0 0 0 0 0 0 
0 0 0 0 0 0 0 0 
0 0 0 0 0 0 0 0 
0 0 0 0 0 0 0 0 
0 0 0 0 0 0 0 0 
0 0 0 0 0 0 0 0 
0 0 0 0 0 0 0 0 
0 0 0 0 0 0 0 0 
0 0 0 0 0 0 0 0 
0 0 0 0 0 0 0 0 
-8.799718409010884e-05 -8.799718409011060e-05 -8.799718409010887e-05 -8.799718409010884e-05 -8.799718409010711e-05 -8.799718409010711e-05 -8.799718409011058e-05 -8.799718409010711e-05 
0 0 0 0 0 0 0 0 
0 0 0 0 0 0 0 0 
0 0 0 0 0 0 0 0 
-0.0001759943681802177 -0.0001759943681802212 -0.0001759943681802177 -0.0001759943681802177 -0.0001759943681802142 -0.0001759943681802142 -0.0001759943681802212 -0.0001759943681802142 
0 0 0 0 0 0 0 0 
0 0 0 0 0 0 0 0 
0 0 0 0 0 0 0 0 
0 0 0 0 0 0 0 0 
0 0 0 0 0 0 0 0 
-8.799718409010884e-05 -8.799718409011060e-05 -8.799718409010887e-05 -8.799718409010884e-05 -8.799718409010711e-05 -8.799718409010711e-05 -8.799718409011058e-05 -8.799718409010711e-05 
0 0 0 0 0 0 0 0 
0 0 0 0 0 0 0 0 
0 0 0 0 0 0 0 0 
0 0 0 0 0 0 0 0 
0 0 0 0 0 0 0 0 
0 0 0 0 0 0 0 0 
0 0 0 0 0 0 0 0 
0 0 0 0 0 0 0 0 
0 0 0 0 0 0 0 0 
0 0 0 0 0 0 0 0 
0 0 0 0 0 0 0 0 
0 0 0 0 0 0 0 0 
0 0 0 0 0 0 0 0 
0 0 0 0 0 0 0 0 
0 0 0 0 0 0 0 0 
0 0 0 0 0 0 0 0 
0 0 0 0 0 0 0 0 
0 0 0 0 0 0 0 0 
0 0 0 0 0 0 0 0 
0 0 0 0 0 0 0 0 
-8.799718409010884e-05 -8.799718409011060e-05 -8.799718409010887e-05 -8.799718409010884e-05 -8.799718409010711e-05 -8.799718409010711e-05 -8.799718409011058e-05 -8.799718409010711e-05 
0 0 0 0 0 0 0 0 
0 0 0 0 0 0 0 0 
0 0 0 0 0 0 0 0 
0 0 0 0 0 0 0 0 
0 0 0 0 0 0 0 0 
-8.799718409010884e-05 -8.799718409011060e-05 -8.799718409010887e-05 -8.799718409010884e-05 -8.799718409010711e-05 -8.799718409010711e-05 -8.799718409011058e-05 -8.799718409010711e-05 
0 0 0 0 0 0 0 0 
0 0 0 0 0 0 0 0 
0 0 0 0 0 0 0 0 
0 0 0 0 0 0 0 0 
0 0 0 0 0 0 0 0 
0 0 0 0 0 0 0 0 
0 0 0 0 0 0 0 0 
0 0 0 0 0 0 0 0 
0 0 0 0 0 0 0 0 
0 0 0 0 0 0 0 0 
0 0 0 0 0 0 0 0 
-8.799718409010884e-05 -8.799718409011060e-05 -8.799718409010887e-05 -8.799718409010884e-05 -8.799718409010711e-05 -8.799718409010711e-05 -8.799718409011058e-05 -8.799718409010711e-05 
0 0 0 0 0 0 0 0 
0 0 0 0 0 0 0 0 
0 0 0 0 0 0 0 0 
0 0 0 0 0 0 0 0 
0 0 0 0 0 0 0 0 
0 0 0 0 0 0 0 0 
0 0 0 0 0 0 0 0 
0 0 0 0 0 0 0 0 
0 0 0 0 0 0 0 0 
0 0 0 0 0 0 0 0 
0 0 0 0 0 0 0 0 
-8.799718409010884e-05 -8.799718409011060e-05 -8.799718409010887e-05 -8.799718409010884e-05 -8.799718409010711e-05 -8.799718409010711e-05 -8.799718409011058e-05 -8.799718409010711e-05 
-8.799718409010884e-05 -8.799718409011060e-05 -8.799718409010887e-05 -8.799718409010884e-05 -8.799718409010711e-05 -8.799718409010711e-05 -8.799718409011058e-05 -8.799718409010711e-05 
0 0 0 0 0 0 0 0 
0 0 0 0 0 0 0 0 
0 0 0 0 0 0 0 0 
-0.0001759943681802177 -0.0001759943681802212 -0.0001759943681802177 -0.0001759943681802177 -0.0001759943681802142 -0.0001759943681802142 -0.0001759943681802212 -0.0001759943681802142 
0 0 0 0 0 0 0 0 
0 0 0 0 0 0 0 0 
-8.799718409010884e-05 -8.799718409011060e-05 -8.799718409010887e-05 -8.799718409010884e-05 -8.799718409010711e-05 -8.799718409010711e-05 -8.799718409011058e-05 -8.799718409010711e-05 
0 0 0 0 0 0 0 0 
0 0 0 0 0 0 0 0 
0 0 0 0 0 0 0 0 
-0.0006159802886307645 -0.0006159802886307779 -0.0006159802886307623 -0.0006159802886307628 -0.0006159802886307500 -0.0006159802886307517 -0.0006159802886307788 -0.0006159802886307539 
0 0 0 0 0 0 0 0 
0 0 0 0 0 0 0 0 
-8.799718409010884e-05 -8.799718409011060e-05 -8.799718409010887e-05 -8.799718409010884e-05 -8.799718409010711e-05 -8.799718409010711e-05 -8.799718409011058e-05 -8.799718409010711e-05 
0 0 0 0 0 0 0 0 
0 0 0 0 0 0 0 0 
0 0 0 0 0 0 0 0 
0 0 0 0 0 0 0 0 
0 0 0 0 0 0 0 0 
0 0 0 0 0 0 0 0 
0 0 0 0 0 0 0 0 
0 0 0 0 0 0 0 0 
0 0 0 0 0 0 0 0 
0 0 0 0 0 0 0 0 
0 0 0 0 0 0 0 0 
0 0 0 0 0 0 0 0 
0 0 0 0 0 0 0 0 
-8.799718409010884e-05 -8.799718409011060e-05 -8.799718409010887e-05 -8.799718409010884e-05 -8.799718409010711e-05 -8.799718409010711e-05 -8.799718409011058e-05 -8.799718409010711e-05 
0 0 0 0 0 0 0 0 
0 0 0 0 0 0 0 0 
0 0 0 0 0 0 0 0 
0 0 0 0 0 0 0 0 
0 0 0 0 0 0 0 0 
0 0 0 0 0 0 0 0 
0 0 0 0 0 0 0 0 
0 0 0 0 0 0 0 0 
0 0 0 0 0 0 0 0 
-0.0001759943681802177 -0.0001759943681802212 -0.0001759943681802177 -0.0001759943681802177 -0.0001759943681802142 -0.0001759943681802142 -0.0001759943681802212 -0.0001759943681802142 
0 0 0 0 0 0 0 0 
0 0 0 0 0 0 0 0 
0 0 0 0 0 0 0 0 
0 0 0 0 0 0 0 0 
0 0 0 0 0 0 0 0 
0 0 0 0 0 0 0 0 
-8.799718409010884e-05 -8.799718409011060e-05 -8.799718409010887e-05 -8.799718409010884e-05 -8.799718409010711e-05 -8.799718409010711e-05 -8.799718409011058e-05 -8.799718409010711e-05 
0 0 0 0 0 0 0 0 
0 0 0 0 0 0 0 0 
0 0 0 0 0 0 0 0 
0 0 0 0 0 0 0 0 
0 0 0 0 0 0 0 0 
0 0 0 0 0 0 0 0 
0 0 0 0 0 0 0 0 
0 0 0 0 0 0 0 0 
0 0 0 0 0 0 0 0 
0 0 0 0 0 0 0 0 
0 0 0 0 0 0 0 0 
0 0 0 0 0 0 0 0 
0 0 0 0 0 0 0 0 
0 0 0 0 0 0 0 0 
0 0 0 0 0 0 0 0 
0 0 0 0 0 0 0 0 
0 0 0 0 0 0 0 0 
0 0 0 0 0 0 0 0 
0 0 0 0 0 0 0 0 
0 0 0 0 0 0 0 0 
-8.799718409010884e-05 -8.799718409011060e-05 -8.799718409010887e-05 -8.799718409010884e-05 -8.799718409010711e-05 -8.799718409010711e-05 -8.799718409011058e-05 -8.799718409010711e-05 
-8.799718409010884e-05 -8.799718409011060e-05 -8.799718409010887e-05 -8.799718409010884e-05 -8.799718409010711e-05 -8.799718409010711e-05 -8.799718409011058e-05 -8.799718409010711e-05 
-0.001759943681802182 -0.001759943681802211 -0.001759943681802185 -0.001759943681802184 -0.001759943681802150 -0.001759943681802147 -0.001759943681802215 -0.001759943681802146 
0 0 0 0 0 0 0 0 
0 0 0 0 0 0 0 0 
-8.799718409010884e-05 -8.799718409011060e-05 -8.799718409010887e-05 -8.799718409010884e-05 -8.799718409010711e-05 -8.799718409010711e-05 -8.799718409011058e-05 -8.799718409010711e-05 
0 0 0 0 0 0 0 0 
0 0 0 0 0 0 0 0 
0 0 0 0 0 0 0 0 
0 0 0 0 0 0 0 0 
0 0 0 0 0 0 0 0 
-0.0001759943681802177 -0.0001759943681802212 -0.0001759943681802177 -0.0001759943681802177 -0.0001759943681802142 -0.0001759943681802142 -0.0001759943681802212 -0.0001759943681802142 
0 0 0 0 0 0 0 0 
0 0 0 0 0 0 0 0 
0 0 0 0 0 0 0 0 
-0.0001759943681802177 -0.0001759943681802212 -0.0001759943681802177 -0.0001759943681802177 -0.0001759943681802142 -0.0001759943681802142 -0.0001759943681802212 -0.0001759943681802142 
0 0 0 0 0 0 0 0 
0 0 0 0 0 0 0 0 
0 0 0 0 0 0 0 0 
0 0 0 0 0 0 0 0 
-0.0003519887363604354 -0.0003519887363604424 -0.0003519887363604355 -0.0003519887363604354 -0.0003519887363604284 -0.0003519887363604284 -0.0003519887363604423 -0.0003519887363604284 
0 0 0 0 0 0 0 0 
-8.799718409010884e-05 -8.799718409011060e-05 -8.799718409010887e-05 -8.799718409010884e-05 -8.799718409010711e-05 -8.799718409010711e-05 -8.799718409011058e-05 -8.799718409010711e-05 
0 0 0 0 0 0 0 0 
-8.799718409010884e-05 -8.799718409011060e-05 -8.799718409010887e-05 -8.799718409010884e-05 -8.799718409010711e-05 -8.799718409010711e-05 -8.799718409011058e-05 -8.799718409010711e-05 
0 0 0 0 0 0 0 0 
0 0 0 0 0 0 0 0 
0 0 0 0 0 0 0 0 
0 0 0 0 0 0 0 0 
0 0 0 0 0 0 0 0 
0 0 0 0 0 0 0 0 
0 0 0 0 0 0 0 0 
0 0 0 0 0 0 0 0 
0 0 0 0 0 0 0 0 
0 0 0 0 0 0 0 0 
0 0 0 0 0 0 0 0 
0 0 0 0 0 0 0 0 
0 0 0 0 0 0 0 0 
0 0 0 0 0 0 0 0 
0 0 0 0 0 0 0 0 
0 0 0 0 0 0 0 0 
0 0 0 0 0 0 0 0 
-8.799718409010884e-05 -8.799718409011060e-05 -8.799718409010887e-05 -8.799718409010884e-05 -8.799718409010711e-05 -8.799718409010711e-05 -8.799718409011058e-05 -8.799718409010711e-05 
0 0 0 0 0 0 0 0 
0 0 0 0 0 0 0 0 
-0.0001759943681802177 -0.0001759943681802212 -0.0001759943681802177 -0.0001759943681802177 -0.0001759943681802142 -0.0001759943681802142 -0.0001759943681802212 -0.0001759943681802142 
0 0 0 0 0 0 0 0 
0 0 0 0 0 0 0 0 
-0.0004399859204505455 -0.0004399859204505529 -0.0004399859204505461 -0.0004399859204505460 -0.0004399859204505375 -0.0004399859204505367 -0.0004399859204505538 -0.0004399859204505365 
-8.799718409010884e-05 -8.799718409011060e-05 -8.799718409010887e-05 -8.799718409010884e-05 -8.799718409010711e-05 -8.799718409010711e-05 -8.799718409011058e-05 -8.799718409010711e-05 
0 0 0 0 0 0 0 0 
0 0 0 0 0 0 0 0 
0 0 0 0 0 0 0 0 
0 0 0 0 0 0 0 0 
-8.799718409010884e-05 -8.799718409011060e-05 -8.799718409010887e-05 -8.799718409010884e-05 -8.799718409010711e-05 -8.799718409010711e-05 -8.799718409011058e-05 -8.799718409010711e-05 
0 0 0 0 0 0 0 0 
0 0 0 0 0 0 0 0 
0 0 0 0 0 0 0 0 
-0.0005279831045406505 -0.0005279831045406640 -0.0005279831045406497 -0.0005279831045406495 -0.0005279831045406388 -0.0005279831045406403 -0.0005279831045406616 -0.0005279831045406408 
0 0 0 0 0 0 0 0 
0 0 0 0 0 0 0 0 
0 0 0 0 0 0 0 0 
0 0 0 0 0 0 0 0 
0 0 0 0 0 0 0 0 
0 0 0 0 0 0 0 0 
0 0 0 0 0 0 0 0 
-8.799718409010884e-05 -8.799718409011060e-05 -8.799718409010887e-05 -8.799718409010884e-05 -8.799718409010711e-05 -8.799718409010711e-05 -8.799718409011058e-05 -8.799718409010711e-05 
-0.0001759943681802177 -0.0001759943681802212 -0.0001759943681802177 -0.0001759943681802177 -0.0001759943681802142 -0.0001759943681802142 -0.0001759943681802212 -0.0001759943681802142 
0 0 0 0 0 0 0 0 
0 0 0 0 0 0 0 0 
0 0 0 0 0 0 0 0 
0 0 0 0 0 0 0 0 
0 0 0 0 0 0 0 0 
-8.799718409010884e-05 -8.799718409011060e-05 -8.799718409010887e-05 -8.799718409010884e-05 -8.799718409010711e-05 -8.799718409010711e-05 -8.799718409011058e-05 -8.799718409010711e-05 
0 0 0 0 0 0 0 0 
0 0 0 0 0 0 0 0 
0 0 0 0 0 0 0 0 
-8.799718409010884e-05 -8.799718409011060e-05 -8.799718409010887e-05 -8.799718409010884e-05 -8.799718409010711e-05 -8.799718409010711e-05 -8.799718409011058e-05 -8.799718409010711e-05 
0 0 0 0 0 0 0 0 
0 0 0 0 0 0 0 0 
-8.799718409010884e-05 -8.799718409011060e-05 -8.799718409010887e-05 -8.799718409010884e-05 -8.799718409010711e-05 -8.799718409010711e-05 -8.799718409011058e-05 -8.799718409010711e-05 
0 0 0 0 0 0 0 0 
-8.799718409010884e-05 -8.799718409011060e-05 -8.799718409010887e-05 -8.799718409010884e-05 -8.799718409010711e-05 -8.799718409010711e-05 -8.799718409011058e-05 -8.799718409010711e-05 
0 0 0 0 0 0 0 0 
0 0 0 0 0 0 0 0 
-8.799718409010884e-05 -8.799718409011060e-05 -8.799718409010887e-05 -8.799718409010884e-05 -8.799718409010711e-05 -8.799718409010711e-05 -8.799718409011058e-05 -8.799718409010711e-05 
0 0 0 0 0 0 0 0 
0 0 0 0 0 0 0 0 
0 0 0 0 0 0 0 0 
0 0 0 0 0 0 0 0 
0 0 0 0 0 0 0 0 
0 0 0 0 0 0 0 0 
0 0 0 0 0 0 0 0 
0 0 0 0 0 0 0 0 
-0.0001759943681802177 -0.0001759943681802212 -0.0001759943681802177 -0.0001759943681802177 -0.0001759943681802142 -0.0001759943681802142 -0.0001759943681802212 -0.0001759943681802142 
-0.0002639915522703253 -0.0002639915522703320 -0.0002639915522703248 -0.0002639915522703247 -0.0002639915522703194 -0.0002639915522703202 -0.0002639915522703308 -0.0002639915522703204 
0 0 0 0 0 0 0 0 
0 0 0 0 0 0 0 0 
0 0 0 0 0 0 0 0 
0 0 0 0 0 0 0 0 
0 0 0 0 0 0 0 0 
0 0 0 0 0 0 0 0 
0 0 0 0 0 0 0 0 
0 0 0 0 0 0 0 0 
0 0 0 0 0 0 0 0 
0 0 0 0 0 0 0 0 
0 0 0 0 0 0 0 0 
-8.799718409010884e-05 -8.799718409011060e-05 -8.799718409010887e-05 -8.799718409010884e-05 -8.799718409010711e-05 -8.799718409010711e-05 -8.799718409011058e-05 -8.799718409010711e-05 
0 0 0 0 0 0 0 0 
0 0 0 0 0 0 0 0 
0 0 0 0 0 0 0 0 
0 0 0 0 0 0 0 0 
0 0 0 0 0 0 0 0 
0 0 0 0 0 0 0 0 
0 0 0 0 0 0 0 0 
0 0 0 0 0 0 0 0 
-8.799718409010884e-05 -8.799718409011060e-05 -8.799718409010887e-05 -8.799718409010884e-05 -8.799718409010711e-05 -8.799718409010711e-05 -8.799718409011058e-05 -8.799718409010711e-05 
0 0 0 0 0 0 0 0 
0 0 0 0 0 0 0 0 
-0.001055966209081301 -0.001055966209081328 -0.001055966209081299 -0.001055966209081299 -0.001055966209081278 -0.001055966209081281 -0.001055966209081323 -0.001055966209081282 
0 0 0 0 0 0 0 0 
0 0 0 0 0 0 0 0 
0 0 0 0 0 0 0 0 
-0.0001759943681802177 -0.0001759943681802212 -0.0001759943681802177 -0.0001759943681802177 -0.0001759943681802142 -0.0001759943681802142 -0.0001759943681802212 -0.0001759943681802142 
-8.799718409010884e-05 -8.799718409011060e-05 -8.799718409010887e-05 -8.799718409010884e-05 -8.799718409010711e-05 -8.799718409010711e-05 -8.799718409011058e-05 -8.799718409010711e-05 
-0.0001759943681802177 -0.0001759943681802212 -0.0001759943681802177 -0.0001759943681802177 -0.0001759943681802142 -0.0001759943681802142 -0.0001759943681802212 -0.0001759943681802142 
0 0 0 0 0 0 0 0 
-8.799718409010884e-05 -8.799718409011060e-05 -8.799718409010887e-05 -8.799718409010884e-05 -8.799718409010711e-05 -8.799718409010711e-05 -8.799718409011058e-05 -8.799718409010711e-05 
0 0 0 0 0 0 0 0 
0 0 0 0 0 0 0 0 
0 0 0 0 0 0 0 0 
0 0 0 0 0 0 0 0 
-8.799718409010884e-05 -8.799718409011060e-05 -8.799718409010887e-05 -8.799718409010884e-05 -8.799718409010711e-05 -8.799718409010711e-05 -8.799718409011058e-05 -8.799718409010711e-05 
-8.799718409010884e-05 -8.799718409011060e-05 -8.799718409010887e-05 -8.799718409010884e-05 -8.799718409010711e-05 -8.799718409010711e-05 -8.799718409011058e-05 -8.799718409010711e-05 
0 0 0 0 0 0 0 0 
0 0 0 0 0 0 0 0 
0 0 0 0 0 0 0 0 
0 0 0 0 0 0 0 0 
0 0 0 0 0 0 0 0 
0 0 0 0 0 0 0 0 
0 0 0 0 0 0 0 0 
0 0 0 0 0 0 0 0 
-8.799718409010884e-05 -8.799718409011060e-05 -8.799718409010887e-05 -8.799718409010884e-05 -8.799718409010711e-05 -8.799718409010711e-05 -8.799718409011058e-05 -8.799718409010711e-05 
0 0 0 0 0 0 0 0 
0 0 0 0 0 0 0 0 
0 0 0 0 0 0 0 0 
0 0 0 0 0 0 0 0 
0 0 0 0 0 0 0 0 
0 0 0 0 0 0 0 0 
-0.0002639915522703253 -0.0002639915522703320 -0.0002639915522703248 -0.0002639915522703247 -0.0002639915522703194 -0.0002639915522703202 -0.0002639915522703308 -0.0002639915522703204 
0 0 0 0 0 0 0 0 
0 0 0 0 0 0 0 0 
0 0 0 0 0 0 0 0 
0 0 0 0 0 0 0 0 
-8.799718409010884e-05 -8.799718409011060e-05 -8.799718409010887e-05 -8.799718409010884e-05 -8.799718409010711e-05 -8.799718409010711e-05 -8.799718409011058e-05 -8.799718409010711e-05 
-0.0001759943681802177 -0.0001759943681802212 -0.0001759943681802177 -0.0001759943681802177 -0.0001759943681802142 -0.0001759943681802142 -0.0001759943681802212 -0.0001759943681802142 
0 0 0 0 0 0 0 0 
0 0 0 0 0 0 0 0 
0 0 0 0 0 0 0 0 
0 0 0 0 0 0 0 0 
0 0 0 0 0 0 0 0 
0 0 0 0 0 0 0 0 
0 0 0 0 0 0 0 0 
-0.0001759943681802177 -0.0001759943681802212 -0.0001759943681802177 -0.0001759943681802177 -0.0001759943681802142 -0.0001759943681802142 -0.0001759943681802212 -0.0001759943681802142 
0 0 0 0 0 0 0 0 
0 0 0 0 0 0 0 0 
0 0 0 0 0 0 0 0 
0 0 0 0 0 0 0 0 
0 0 0 0 0 0 0 0 
0 0 0 0 0 0 0 0 
0 0 0 0 0 0 0 0 
0 0 0 0 0 0 0 0 
0 0 0 0 0 0 0 0 
0 0 0 0 0 0 0 0 
0 0 0 0 0 0 0 0 
0 0 0 0 0 0 0 0 
0 0 0 0 0 0 0 0 
0 0 0 0 0 0 0 0 
-8.799718409010884e-05 -8.799718409011060e-05 -8.799718409010887e-05 -8.799718409010884e-05 -8.799718409010711e-05 -8.799718409010711e-05 -8.799718409011058e-05 -8.799718409010711e-05 
0 0 0 0 0 0 0 0 
-8.799718409010884e-05 -8.799718409011060e-05 -8.799718409010887e-05 -8.799718409010884e-05 -8.799718409010711e-05 -8.799718409010711e-05 -8.799718409011058e-05 -8.799718409010711e-05 
0 0 0 0 0 0 0 0 
-8.799718409010884e-05 -8.799718409011060e-05 -8.799718409010887e-05 -8.799718409010884e-05 -8.799718409010711e-05 -8.799718409010711e-05 -8.799718409011058e-05 -8.799718409010711e-05 
0 0 0 0 0 0 0 0 
0 0 0 0 0 0 0 0 
0 0 0 0 0 0 0 0 
0 0 0 0 0 0 0 0 
0 0 0 0 0 0 0 0 
0 0 0 0 0 0 0 0 
0 0 0 0 0 0 0 0 
0 0 0 0 0 0 0 0 
0 0 0 0 0 0 0 0 
0 0 0 0 0 0 0 0 
0 0 0 0 0 0 0 0 
0 0 0 0 0 0 0 0 
-8.799718409010884e-05 -8.799718409011060e-05 -8.799718409010887e-05 -8.799718409010884e-05 -8.799718409010711e-05 -8.799718409010711e-05 -8.799718409011058e-05 -8.799718409010711e-05 
-8.799718409010884e-05 -8.799718409011060e-05 -8.799718409010887e-05 -8.799718409010884e-05 -8.799718409010711e-05 -8.799718409010711e-05 -8.799718409011058e-05 -8.799718409010711e-05 
0 0 0 0 0 0 0 0 
0 0 0 0 0 0 0 0 
0 0 0 0 0 0 0 0 
0 0 0 0 0 0 0 0 
0 0 0 0 0 0 0 0 
0 0 0 0 0 0 0 0 
0 0 0 0 0 0 0 0 
-0.0003519887363604354 -0.0003519887363604424 -0.0003519887363604355 -0.0003519887363604354 -0.0003519887363604284 -0.0003519887363604284 -0.0003519887363604423 -0.0003519887363604284 
-8.799718409010884e-05 -8.799718409011060e-05 -8.799718409010887e-05 -8.799718409010884e-05 -8.799718409010711e-05 -8.799718409010711e-05 -8.799718409011058e-05 -8.799718409010711e-05 
-0.0001759943681802177 -0.0001759943681802212 -0.0001759943681802177 -0.0001759943681802177 -0.0001759943681802142 -0.0001759943681802142 -0.0001759943681802212 -0.0001759943681802142 
0 0 0 0 0 0 0 0 
-8.799718409010884e-05 -8.799718409011060e-05 -8.799718409010887e-05 -8.799718409010884e-05 -8.799718409010711e-05 -8.799718409010711e-05 -8.799718409011058e-05 -8.799718409010711e-05 
0 0 0 0 0 0 0 0 
0 0 0 0 0 0 0 0 
0 0 0 0 0 0 0 0 
0 0 0 0 0 0 0 0 
0 0 0 0 0 0 0 0 
0 0 0 0 0 0 0 0 
0 0 0 0 0 0 0 0 
0 0 0 0 0 0 0 0 
0 0 0 0 0 0 0 0 
0 0 0 0 0 0 0 0 
-8.799718409010884e-05 -8.799718409011060e-05 -8.799718409010887e-05 -8.799718409010884e-05 -8.799718409010711e-05 -8.799718409010711e-05 -8.799718409011058e-05 -8.799718409010711e-05 
0 0 0 0 0 0 0 0 
0 0 0 0 0 0 0 0 
0 0 0 0 0 0 0 0 
0 0 0 0 0 0 0 0 
0 0 0 0 0 0 0 0 
-0.001319957761351641 -0.001319957761351687 -0.001319957761351640 -0.001319957761351647 -0.001319957761351633 -0.001319957761351626 -0.001319957761351687 -0.001319957761351612 
0 0 0 0 0 0 0 0 
0 0 0 0 0 0 0 0 
0 0 0 0 0 0 0 0 
0 0 0 0 0 0 0 0 
0 0 0 0 0 0 0 0 
0 0 0 0 0 0 0 0 
0 0 0 0 0 0 0 0 
0 0 0 0 0 0 0 0 
0 0 0 0 0 0 0 0 
0 0 0 0 0 0 0 0 
0 0 0 0 0 0 0 0 
0 0 0 0 0 0 0 0 
0 0 0 0 0 0 0 0 
0 0 0 0 0 0 0 0 
0 0 0 0 0 0 0 0 
0 0 0 0 0 0 0 0 
0 0 0 0 0 0 0 0 
0 0 0 0 0 0 0 0 
-0.0005279831045406505 -0.0005279831045406640 -0.0005279831045406497 -0.0005279831045406495 -0.0005279831045406388 -0.0005279831045406403 -0.0005279831045406616 -0.0005279831045406408 
0 0 0 0 0 0 0 0 
0 0 0 0 0 0 0 0 
0 0 0 0 0 0 0 0 
0 0 0 0 0 0 0 0 
0 0 0 0 0 0 0 0 
0 0 0 0 0 0 0 0 
0 0 0 0 0 0 0 0 
-0.0002639915522703253 -0.0002639915522703320 -0.0002639915522703248 -0.0002639915522703247 -0.0002639915522703194 -0.0002639915522703202 -0.0002639915522703308 -0.0002639915522703204 
0 0 0 0 0 0 0 0 
0 0 0 0 0 0 0 0 
0 0 0 0 0 0 0 0 
0 0 0 0 0 0 0 0 
0 0 0 0 0 0 0 0 
0 0 0 0 0 0 0 0 
0 0 0 0 0 0 0 0 
-8.799718409010884e-05 -8.799718409011060e-05 -8.799718409010887e-05 -8.799718409010884e-05 -8.799718409010711e-05 -8.799718409010711e-05 -8.799718409011058e-05 -8.799718409010711e-05 
0 0 0 0 0 0 0 0 
0 0 0 0 0 0 0 0 
0 0 0 0 0 0 0 0 
-8.799718409010884e-05 -8.799718409011060e-05 -8.799718409010887e-05 -8.799718409010884e-05 -8.799718409010711e-05 -8.799718409010711e-05 -8.799718409011058e-05 -8.799718409010711e-05 
-8.799718409010884e-05 -8.799718409011060e-05 -8.799718409010887e-05 -8.799718409010884e-05 -8.799718409010711e-05 -8.799718409010711e-05 -8.799718409011058e-05 -8.799718409010711e-05 
0 0 0 0 0 0 0 0 
0 0 0 0 0 0 0 0 
-8.799718409010884e-05 -8.799718409011060e-05 -8.799718409010887e-05 -8.799718409010884e-05 -8.799718409010711e-05 -8.799718409010711e-05 -8.799718409011058e-05 -8.799718409010711e-05 
0 0 0 0 0 0 0 0 
0 0 0 0 0 0 0 0 
0 0 0 0 0 0 0 0 
0 0 0 0 0 0 0 0 
-8.799718409010884e-05 -8.799718409011060e-05 -8.799718409010887e-05 -8.799718409010884e-05 -8.799718409010711e-05 -8.799718409010711e-05 -8.799718409011058e-05 -8.799718409010711e-05 
0 0 0 0 0 0 0 0 
0 0 0 0 0 0 0 0 
0 0 0 0 0 0 0 0 
0 0 0 0 0 0 0 0 
0 0 0 0 0 0 0 0 
0 0 0 0 0 0 0 0 
0 0 0 0 0 0 0 0 
0 0 0 0 0 0 0 0 
0 0 0 0 0 0 0 0 
0 0 0 0 0 0 0 0 
0 0 0 0 0 0 0 0 
0 0 0 0 0 0 0 0 
-8.799718409010884e-05 -8.799718409011060e-05 -8.799718409010887e-05 -8.799718409010884e-05 -8.799718409010711e-05 -8.799718409010711e-05 -8.799718409011058e-05 -8.799718409010711e-05 
0 0 0 0 0 0 0 0 
0 0 0 0 0 0 0 0 
0 0 0 0 0 0 0 0 
-0.0009679690249912020 -0.0009679690249912167 -0.0009679690249912024 -0.0009679690249911989 -0.0009679690249911788 -0.0009679690249911792 -0.0009679690249912189 -0.0009679690249911773 
0 0 0 0 0 0 0 0 
0 0 0 0 0 0 0 0 
-8.799718409010884e-05 -8.799718409011060e-05 -8.799718409010887e-05 -8.799718409010884e-05 -8.799718409010711e-05 -8.799718409010711e-05 -8.799718409011058e-05 -8.799718409010711e-05 
-8.799718409010884e-05 -8.799718409011060e-05 -8.799718409010887e-05 -8.799718409010884e-05 -8.799718409010711e-05 -8.799718409010711e-05 -8.799718409011058e-05 -8.799718409010711e-05 
0 0 0 0 0 0 0 0 
0 0 0 0 0 0 0 0 
0 0 0 0 0 0 0 0 
0 0 0 0 0 0 0 0 
0 0 0 0 0 0 0 0 
0 0 0 0 0 0 0 0 
0 0 0 0 0 0 0 0 
-0.0001759943681802177 -0.0001759943681802212 -0.0001759943681802177 -0.0001759943681802177 -0.0001759943681802142 -0.0001759943681802142 -0.0001759943681802212 -0.0001759943681802142 
-0.0001759943681802177 -0.0001759943681802212 -0.0001759943681802177 -0.0001759943681802177 -0.0001759943681802142 -0.0001759943681802142 -0.0001759943681802212 -0.0001759943681802142 
0 0 0 0 0 0 0 0 
0 0 0 0 0 0 0 0 
0 0 0 0 0 0 0 0 
-8.799718409010884e-05 -8.799718409011060e-05 -8.799718409010887e-05 -8.799718409010884e-05 -8.799718409010711e-05 -8.799718409010711e-05 -8.799718409011058e-05 -8.799718409010711e-05 
0 0 0 0 0 0 0 0 
0 0 0 0 0 0 0 0 
0 0 0 0 0 0 0 0 
0 0 0 0 0 0 0 0 
0 0 0 0 0 0 0 0 
0 0 0 0 0 0 0 0 
-0.0007919746568109770 -0.0007919746568109917 -0.0007919746568109796 -0.0007919746568109787 -0.0007919746568109638 -0.0007919746568109620 -0.0007919746568109904 -0.0007919746568109599 
0 0 0 0 0 0 0 0 
0 0 0 0 0 0 0 0 
-8.799718409010884e-05 -8.799718409011060e-05 -8.799718409010887e-05 -8.799718409010884e-05 -8.799718409010711e-05 -8.799718409010711e-05 -8.799718409011058e-05 -8.799718409010711e-05 
0 0 0 0 0 0 0 0 
0 0 0 0 0 0 0 0 
0 0 0 0 0 0 0 0 
0 0 0 0 0 0 0 0 
0 0 0 0 0 0 0 0 
-8.799718409010884e-05 -8.799718409011060e-05 -8.799718409010887e-05 -8.799718409010884e-05 -8.799718409010711e-05 -8.799718409010711e-05 -8.799718409011058e-05 -8.799718409010711e-05 
0 0 0 0 0 0 0 0 
-8.799718409010884e-05 -8.799718409011060e-05 -8.799718409010887e-05 -8.799718409010884e-05 -8.799718409010711e-05 -8.799718409010711e-05 -8.799718409011058e-05 -8.799718409010711e-05 
0 0 0 0 0 0 0 0 
0 0 0 0 0 0 0 0 
0 0 0 0 0 0 0 0 
0 0 0 0 0 0 0 0 
-8.799718409010884e-05 -8.799718409011060e-05 -8.799718409010887e-05 -8.799718409010884e-05 -8.799718409010711e-05 -8.799718409010711e-05 -8.799718409011058e-05 -8.799718409010711e-05 
0 0 0 0 0 0 0 0 
0 0 0 0 0 0 0 0 
0 0 0 0 0 0 0 0 
0 0 0 0 0 0 0 0 
0 0 0 0 0 0 0 0 
0 0 0 0 0 0 0 0 
0 0 0 0 0 0 0 0 
0 0 0 0 0 0 0 0 
0 0 0 0 0 0 0 0 
0 0 0 0 0 0 0 0 
0 0 0 0 0 0 0 0 
0 0 0 0 0 0 0 0 
0 0 0 0 0 0 0 0 
0 0 0 0 0 0 0 0 
-0.0001759943681802177 -0.0001759943681802212 -0.0001759943681802177 -0.0001759943681802177 -0.0001759943681802142 -0.0001759943681802142 -0.0001759943681802212 -0.0001759943681802142 
0 0 0 0 0 0 0 0 
0 0 0 0 0 0 0 0 
-0.001407954945441742 -0.001407954945441770 -0.001407954945441742 -0.001407954945441742 -0.001407954945441714 -0.001407954945441714 -0.001407954945441769 -0.001407954945441714 
0 0 0 0 0 0 0 0 
0 0 0 0 0 0 0 0 
0 0 0 0 0 0 0 0 
0 0 0 0 0 0 0 0 
0 0 0 0 0 0 0 0 
-8.799718409010884e-05 -8.799718409011060e-05 -8.799718409010887e-05 -8.799718409010884e-05 -8.799718409010711e-05 -8.799718409010711e-05 -8.799718409011058e-05 -8.799718409010711e-05 
0 0 0 0 0 0 0 0 
0 0 0 0 0 0 0 0 
0 0 0 0 0 0 0 0 
-0.0007039774727208707 -0.0007039774727208848 -0.0007039774727208710 -0.0007039774727208707 -0.0007039774727208569 -0.0007039774727208569 -0.0007039774727208846 -0.0007039774727208569 
0 0 0 0 0 0 0 0 
0 0 0 0 0 0 0 0 
-0.0007039774727208707 -0.0007039774727208848 -0.0007039774727208710 -0.0007039774727208707 -0.0007039774727208569 -0.0007039774727208569 -0.0007039774727208846 -0.0007039774727208569 
0 0 0 0 0 0 0 0 
0 0 0 0 0 0 0 0 
0 0 0 0 0 0 0 0 
0 0 0 0 0 0 0 0 
0 0 0 0 0 0 0 0 
-8.799718409010884e-05 -8.799718409011060e-05 -8.799718409010887e-05 -8.799718409010884e-05 -8.799718409010711e-05 -8.799718409010711e-05 -8.799718409011058e-05 -8.799718409010711e-05 
0 0 0 0 0 0 0 0 
0 0 0 0 0 0 0 0 
0 0 0 0 0 0 0 0 
0 0 0 0 0 0 0 0 
0 0 0 0 0 0 0 0 
0 0 0 0 0 0 0 0 
0 0 0 0 0 0 0 0 
0 0 0 0 0 0 0 0 
0 0 0 0 0 0 0 0 
0 0 0 0 0 0 0 0 
0 0 0 0 0 0 0 0 
-0.0007919746568109770 -0.0007919746568109917 -0.0007919746568109796 -0.0007919746568109787 -0.0007919746568109638 -0.0007919746568109620 -0.0007919746568109904 -0.0007919746568109599 
0 0 0 0 0 0 0 0 
0 0 0 0 0 0 0 0 
0 0 0 0 0 0 0 0 
0 0 0 0 0 0 0 0 
0 0 0 0 0 0 0 0 
0 0 0 0 0 0 0 0 
0 0 0 0 0 0 0 0 
0 0 0 0 0 0 0 0 
0 0 0 0 0 0 0 0 
0 0 0 0 0 0 0 0 
0 0 0 0 0 0 0 0 
0 0 0 0 0 0 0 0 
0 0 0 0 0 0 0 0 
0 0 0 0 0 0 0 0 
0 0 0 0 0 0 0 0 
-8.799718409010884e-05 -8.799718409011060e-05 -8.799718409010887e-05 -8.799718409010884e-05 -8.799718409010711e-05 -8.799718409010711e-05 -8.799718409011058e-05 -8.799718409010711e-05 
-8.799718409010884e-05 -8.799718409011060e-05 -8.799718409010887e-05 -8.799718409010884e-05 -8.799718409010711e-05 -8.799718409010711e-05 -8.799718409011058e-05 -8.799718409010711e-05 
0 0 0 0 0 0 0 0 
-8.799718409010884e-05 -8.799718409011060e-05 -8.799718409010887e-05 -8.799718409010884e-05 -8.799718409010711e-05 -8.799718409010711e-05 -8.799718409011058e-05 -8.799718409010711e-05 
0 0 0 0 0 0 0 0 
0 0 0 0 0 0 0 0 
0 0 0 0 0 0 0 0 
0 0 0 0 0 0 0 0 
0 0 0 0 0 0 0 0 
0 0 0 0 0 0 0 0 
0 0 0 0 0 0 0 0 
0 0 0 0 0 0 0 0 
-8.799718409010884e-05 -8.799718409011060e-05 -8.799718409010887e-05 -8.799718409010884e-05 -8.799718409010711e-05 -8.799718409010711e-05 -8.799718409011058e-05 -8.799718409010711e-05 
-8.799718409010884e-05 -8.799718409011060e-05 -8.799718409010887e-05 -8.799718409010884e-05 -8.799718409010711e-05 -8.799718409010711e-05 -8.799718409011058e-05 -8.799718409010711e-05 
0 0 0 0 0 0 0 0 
0 0 0 0 0 0 0 0 
0 0 0 0 0 0 0 0 
0 0 0 0 0 0 0 0 
0 0 0 0 0 0 0 0 
-8.799718409010884e-05 -8.799718409011060e-05 -8.799718409010887e-05 -8.799718409010884e-05 -8.799718409010711e-05 -8.799718409010711e-05 -8.799718409011058e-05 -8.799718409010711e-05 
-0.0005279831045406505 -0.0005279831045406640 -0.0005279831045406497 -0.0005279831045406495 -0.0005279831045406388 -0.0005279831045406403 -0.0005279831045406616 -0.0005279831045406408 
0 0 0 0 0 0 0 0 
0 0 0 0 0 0 0 0 
0 0 0 0 0 0 0 0 
0 0 0 0 0 0 0 0 
0 0 0 0 0 0 0 0 
0 0 0 0 0 0 0 0 
0 0 0 0 0 0 0 0 
0 0 0 0 0 0 0 0 
0 0 0 0 0 0 0 0 
0 0 0 0 0 0 0 0 
0 0 0 0 0 0 0 0 
-8.799718409010884e-05 -8.799718409011060e-05 -8.799718409010887e-05 -8.799718409010884e-05 -8.799718409010711e-05 -8.799718409010711e-05 -8.799718409011058e-05 -8.799718409010711e-05 
0 0 0 0 0 0 0 0 
-8.799718409010884e-05 -8.799718409011060e-05 -8.799718409010887e-05 -8.799718409010884e-05 -8.799718409010711e-05 -8.799718409010711e-05 -8.799718409011058e-05 -8.799718409010711e-05 
0 0 0 0 0 0 0 0 
0 0 0 0 0 0 0 0 
0 0 0 0 0 0 0 0 
0 0 0 0 0 0 0 0 
0 0 0 0 0 0 0 0 
-8.799718409010884e-05 -8.799718409011060e-05 -8.799718409010887e-05 -8.799718409010884e-05 -8.799718409010711e-05 -8.799718409010711e-05 -8.799718409011058e-05 -8.799718409010711e-05 
0 0 0 0 0 0 0 0 
0 0 0 0 0 0 0 0 
0 0 0 0 0 0 0 0 
0 0 0 0 0 0 0 0 
0 0 0 0 0 0 0 0 
0 0 0 0 0 0 0 0 
-8.799718409010884e-05 -8.799718409011060e-05 -8.799718409010887e-05 -8.799718409010884e-05 -8.799718409010711e-05 -8.799718409010711e-05 -8.799718409011058e-05 -8.799718409010711e-05 
0 0 0 0 0 0 0 0 
0 0 0 0 0 0 0 0 
0 0 0 0 0 0 0 0 
0 0 0 0 0 0 0 0 
0 0 0 0 0 0 0 0 
0 0 0 0 0 0 0 0 
0 0 0 0 0 0 0 0 
-8.799718409010884e-05 -8.799718409011060e-05 -8.799718409010887e-05 -8.799718409010884e-05 -8.799718409010711e-05 -8.799718409010711e-05 -8.799718409011058e-05 -8.799718409010711e-05 
0 0 0 0 0 0 0 0 
0 0 0 0 0 0 0 0 
0 0 0 0 0 0 0 0 
-0.0001759943681802177 -0.0001759943681802212 -0.0001759943681802177 -0.0001759943681802177 -0.0001759943681802142 -0.0001759943681802142 -0.0001759943681802212 -0.0001759943681802142 
0 0 0 0 0 0 0 0 
-8.799718409010884e-05 -8.799718409011060e-05 -8.799718409010887e-05 -8.799718409010884e-05 -8.799718409010711e-05 -8.799718409010711e-05 -8.799718409011058e-05 -8.799718409010711e-05 
0 0 0 0 0 0 0 0 
0 0 0 0 0 0 0 0 
0 0 0 0 0 0 0 0 
0 0 0 0 0 0 0 0 
0 0 0 0 0 0 0 0 
0 0 0 0 0 0 0 0 
0 0 0 0 0 0 0 0 
0 0 0 0 0 0 0 0 
0 0 0 0 0 0 0 0 
0 0 0 0 0 0 0 0 
0 0 0 0 0 0 0 0 
0 0 0 0 0 0 0 0 
0 0 0 0 0 0 0 0 
0 0 0 0 0 0 0 0 
-8.799718409010884e-05 -8.799718409011060e-05 -8.799718409010887e-05 -8.799718409010884e-05 -8.799718409010711e-05 -8.799718409010711e-05 -8.799718409011058e-05 -8.799718409010711e-05 
0 0 0 0 0 0 0 0 
0 0 0 0 0 0 0 0 
0 0 0 0 0 0 0 0 
0 0 0 0 0 0 0 0 
-8.799718409010884e-05 -8.799718409011060e-05 -8.799718409010887e-05 -8.799718409010884e-05 -8.799718409010711e-05 -8.799718409010711e-05 -8.799718409011058e-05 -8.799718409010711e-05 
0 0 0 0 0 0 0 0 
0 0 0 0 0 0 0 0 
0 0 0 0 0 0 0 0 
-8.799718409010884e-05 -8.799718409011060e-05 -8.799718409010887e-05 -8.799718409010884e-05 -8.799718409010711e-05 -8.799718409010711e-05 -8.799718409011058e-05 -8.799718409010711e-05 
-8.799718409010884e-05 -8.799718409011060e-05 -8.799718409010887e-05 -8.799718409010884e-05 -8.799718409010711e-05 -8.799718409010711e-05 -8.799718409011058e-05 -8.799718409010711e-05 
0 0 0 0 0 0 0 0 
0 0 0 0 0 0 0 0 
0 0 0 0 0 0 0 0 
0 0 0 0 0 0 0 0 
0 0 0 0 0 0 0 0 
0 0 0 0 0 0 0 0 
-0.0001759943681802177 -0.0001759943681802212 -0.0001759943681802177 -0.0001759943681802177 -0.0001759943681802142 -0.0001759943681802142 -0.0001759943681802212 -0.0001759943681802142 
-8.799718409010884e-05 -8.799718409011060e-05 -8.799718409010887e-05 -8.799718409010884e-05 -8.799718409010711e-05 -8.799718409010711e-05 -8.799718409011058e-05 -8.799718409010711e-05 
-8.799718409010884e-05 -8.799718409011060e-05 -8.799718409010887e-05 -8.799718409010884e-05 -8.799718409010711e-05 -8.799718409010711e-05 -8.799718409011058e-05 -8.799718409010711e-05 
0 0 0 0 0 0 0 0 
-8.799718409010884e-05 -8.799718409011060e-05 -8.799718409010887e-05 -8.799718409010884e-05 -8.799718409010711e-05 -8.799718409010711e-05 -8.799718409011058e-05 -8.799718409010711e-05 
0 0 0 0 0 0 0 0 
0 0 0 0 0 0 0 0 
0 0 0 0 0 0 0 0 
0 0 0 0 0 0 0 0 
-0.0001759943681802177 -0.0001759943681802212 -0.0001759943681802177 -0.0001759943681802177 -0.0001759943681802142 -0.0001759943681802142 -0.0001759943681802212 -0.0001759943681802142 
0 0 0 0 0 0 0 0 
0 0 0 0 0 0 0 0 
0 0 0 0 0 0 0 0 
0 0 0 0 0 0 0 0 
0 0 0 0 0 0 0 0 
0 0 0 0 0 0 0 0 
-8.799718409010884e-05 -8.799718409011060e-05 -8.799718409010887e-05 -8.799718409010884e-05 -8.799718409010711e-05 -8.799718409010711e-05 -8.799718409011058e-05 -8.799718409010711e-05 
0 0 0 0 0 0 0 0 
0 0 0 0 0 0 0 0 
0 0 0 0 0 0 0 0 
0 0 0 0 0 0 0 0 
0 0 0 0 0 0 0 0 
0 0 0 0 0 0 0 0 
0 0 0 0 0 0 0 0 
-8.799718409010884e-05 -8.799718409011060e-05 -8.799718409010887e-05 -8.799718409010884e-05 -8.799718409010711e-05 -8.799718409010711e-05 -8.799718409011058e-05 -8.799718409010711e-05 
0 0 0 0 0 0 0 0 
-0.0001759943681802177 -0.0001759943681802212 -0.0001759943681802177 -0.0001759943681802177 -0.0001759943681802142 -0.0001759943681802142 -0.0001759943681802212 -0.0001759943681802142 
0 0 0 0 0 0 0 0 
0 0 0 0 0 0 0 0 
0 0 0 0 0 0 0 0 
0 0 0 0 0 0 0 0 
0 0 0 0 0 0 0 0 
0 0 0 0 0 0 0 0 
-0.0002639915522703253 -0.0002639915522703320 -0.0002639915522703248 -0.0002639915522703247 -0.0002639915522703194 -0.0002639915522703202 -0.0002639915522703308 -0.0002639915522703204 
0 0 0 0 0 0 0 0 
0 0 0 0 0 0 0 0 
0 0 0 0 0 0 0 0 
0 0 0 0 0 0 0 0 
0 0 0 0 0 0 0 0 
-0.0001759943681802177 -0.0001759943681802212 -0.0001759943681802177 -0.0001759943681802177 -0.0001759943681802142 -0.0001759943681802142 -0.0001759943681802212 -0.0001759943681802142 
0 0 0 0 0 0 0 0 
0 0 0 0 0 0 0 0 
0 0 0 0 0 0 0 0 
0 0 0 0 0 0 0 0 
0 0 0 0 0 0 0 0 
0 0 0 0 0 0 0 0 
0 0 0 0 0 0 0 0 
0 0 0 0 0 0 0 0 
0 0 0 0 0 0 0 0 
0 0 0 0 0 0 0 0 
0 0 0 0 0 0 0 0 
0 0 0 0 0 0 0 0 
0 0 0 0 0 0 0 0 
0 0 0 0 0 0 0 0 
0 0 0 0 0 0 0 0 
0 0 0 0 0 0 0 0 
-0.0007039774727208707 -0.0007039774727208848 -0.0007039774727208710 -0.0007039774727208707 -0.0007039774727208569 -0.0007039774727208569 -0.0007039774727208846 -0.0007039774727208569 
0 0 0 0 0 0 0 0 
0 0 0 0 0 0 0 0 
0 0 0 0 0 0 0 0 
0 0 0 0 0 0 0 0 
0 0 0 0 0 0 0 0 
0 0 0 0 0 0 0 0 
-8.799718409010884e-05 -8.799718409011060e-05 -8.799718409010887e-05 -8.799718409010884e-05 -8.799718409010711e-05 -8.799718409010711e-05 -8.799718409011058e-05 -8.799718409010711e-05 
0 0 0 0 0 0 0 0 
0 0 0 0 0 0 0 0 
0 0 0 0 0 0 0 0 
0 0 0 0 0 0 0 0 
-8.799718409010884e-05 -8.799718409011060e-05 -8.799718409010887e-05 -8.799718409010884e-05 -8.799718409010711e-05 -8.799718409010711e-05 -8.799718409011058e-05 -8.799718409010711e-05 
0 0 0 0 0 0 0 0 
0 0 0 0 0 0 0 0 
0 0 0 0 0 0 0 0 
0 0 0 0 0 0 0 0 
0 0 0 0 0 0 0 0 
0 0 0 0 0 0 0 0 
0 0 0 0 0 0 0 0 
0 0 0 0 0 0 0 0 
0 0 0 0 0 0 0 0 
0 0 0 0 0 0 0 0 
0 0 0 0 0 0 0 0 
0 0 0 0 0 0 0 0 
0 0 0 0 0 0 0 0 
0 0 0 0 0 0 0 0 
0 0 0 0 0 0 0 0 
0 0 0 0 0 0 0 0 
0 0 0 0 0 0 0 0 
0 0 0 0 0 0 0 0 
0 0 0 0 0 0 0 0 
0 0 0 0 0 0 0 0 
-0.0001759943681802177 -0.0001759943681802212 -0.0001759943681802177 -0.0001759943681802177 -0.0001759943681802142 -0.0001759943681802142 -0.0001759943681802212 -0.0001759943681802142 
0 0 0 0 0 0 0 0 
0 0 0 0 0 0 0 0 
0 0 0 0 0 0 0 0 
0 0 0 0 0 0 0 0 
-8.799718409010884e-05 -8.799718409011060e-05 -8.799718409010887e-05 -8.799718409010884e-05 -8.799718409010711e-05 -8.799718409010711e-05 -8.799718409011058e-05 -8.799718409010711e-05 
0 0 0 0 0 0 0 0 
-0.0001759943681802177 -0.0001759943681802212 -0.0001759943681802177 -0.0001759943681802177 -0.0001759943681802142 -0.0001759943681802142 -0.0001759943681802212 -0.0001759943681802142 
-0.0003519887363604354 -0.0003519887363604424 -0.0003519887363604355 -0.0003519887363604354 -0.0003519887363604284 -0.0003519887363604284 -0.0003519887363604423 -0.0003519887363604284 
0 0 0 0 0 0 0 0 
0 0 0 0 0 0 0 0 
0 0 0 0 0 0 0 0 
0 0 0 0 0 0 0 0 
0 0 0 0 0 0 0 0 
0 0 0 0 0 0 0 0 
-8.799718409010884e-05 -8.799718409011060e-05 -8.799718409010887e-05 -8.799718409010884e-05 -8.799718409010711e-05 -8.799718409010711e-05 -8.799718409011058e-05 -8.799718409010711e-05 
0 0 0 0 0 0 0 0 
0 0 0 0 0 0 0 0 
0 0 0 0 0 0 0 0 
0 0 0 0 0 0 0 0 
0 0 0 0 0 0 0 0 
0 0 0 0 0 0 0 0 
0 0 0 0 0 0 0 0 
-0.0002639915522703253 -0.0002639915522703320 -0.0002639915522703248 -0.0002639915522703247 -0.0002639915522703194 -0.0002639915522703202 -0.0002639915522703308 -0.0002639915522703204 
0 0 0 0 0 0 0 0 
0 0 0 0 0 0 0 0 
0 0 0 0 0 0 0 0 
0 0 0 0 0 0 0 0 
0 0 0 0 0 0 0 0 
0 0 0 0 0 0 0 0 
0 0 0 0 0 0 0 0 
0 0 0 0 0 0 0 0 
0 0 0 0 0 0 0 0 
0 0 0 0 0 0 0 0 
0 0 0 0 0 0 0 0 
0 0 0 0 0 0 0 0 
-8.799718409010884e-05 -8.799718409011060e-05 -8.799718409010887e-05 -8.799718409010884e-05 -8.799718409010711e-05 -8.799718409010711e-05 -8.799718409011058e-05 -8.799718409010711e-05 
0 0 0 0 0 0 0 0 
0 0 0 0 0 0 0 0 
0 0 0 0 0 0 0 0 
0 0 0 0 0 0 0 0 
0 0 0 0 0 0 0 0 
0 0 0 0 0 0 0 0 
0 0 0 0 0 0 0 0 
-8.799718409010884e-05 -8.799718409011060e-05 -8.799718409010887e-05 -8.799718409010884e-05 -8.799718409010711e-05 -8.799718409010711e-05 -8.799718409011058e-05 -8.799718409010711e-05 
0 0 0 0 0 0 0 0 
0 0 0 0 0 0 0 0 
0 0 0 0 0 0 0 0 
0 0 0 0 0 0 0 0 
0 0 0 0 0 0 0 0 
0 0 0 0 0 0 0 0 
-8.799718409010884e-05 -8.799718409011060e-05 -8.799718409010887e-05 -8.799718409010884e-05 -8.799718409010711e-05 -8.799718409010711e-05 -8.799718409011058e-05 -8.799718409010711e-05 
0 0 0 0 0 0 0 0 
0 0 0 0 0 0 0 0 
-0.0001759943681802177 -0.0001759943681802212 -0.0001759943681802177 -0.0001759943681802177 -0.0001759943681802142 -0.0001759943681802142 -0.0001759943681802212 -0.0001759943681802142 
0 0 0 0 0 0 0 0 
0 0 0 0 0 0 0 0 
0 0 0 0 0 0 0 0 
0 0 0 0 0 0 0 0 
0 0 0 0 0 0 0 0 
0 0 0 0 0 0 0 0 
0 0 0 0 0 0 0 0 
0 0 0 0 0 0 0 0 
-8.799718409010884e-05 -8.799718409011060e-05 -8.799718409010887e-05 -8.799718409010884e-05 -8.799718409010711e-05 -8.799718409010711e-05 -8.799718409011058e-05 -8.799718409010711e-05 
0 0 0 0 0 0 0 0 
0 0 0 0 0 0 0 0 
0 0 0 0 0 0 0 0 
0 0 0 0 0 0 0 0 
0 0 0 0 0 0 0 0 
0 0 0 0 0 0 0 0 
0 0 0 0 0 0 0 0 
0 0 0 0 0 0 0 0 
0 0 0 0 0 0 0 0 
0 0 0 0 0 0 0 0 
0 0 0 0 0 0 0 0 
0 0 0 0 0 0 0 0 
0 0 0 0 0 0 0 0 
0 0 0 0 0 0 0 0 
0 0 0 0 0 0 0 0 
0 0 0 0 0 0 0 0 
0 0 0 0 0 0 0 0 
0 0 0 0 0 0 0 0 
0 0 0 0 0 0 0 0 
0 0 0 0 0 0 0 0 
0 0 0 0 0 0 0 0 
0 0 0 0 0 0 0 0 
0 0 0 0 0 0 0 0 
0 0 0 0 0 0 0 0 
-0.0002639915522703253 -0.0002639915522703320 -0.0002639915522703248 -0.0002639915522703247 -0.0002639915522703194 -0.0002639915522703202 -0.0002639915522703308 -0.0002639915522703204 
0 0 0 0 0 0 0 0 
0 0 0 0 0 0 0 0 
0 0 0 0 0 0 0 0 
0 0 0 0 0 0 0 0 
0 0 0 0 0 0 0 0 
0 0 0 0 0 0 0 0 
0 0 0 0 0 0 0 0 
0 0 0 0 0 0 0 0 
0 0 0 0 0 0 0 0 
0 0 0 0 0 0 0 0 
0 0 0 0 0 0 0 0 
0 0 0 0 0 0 0 0 
0 0 0 0 0 0 0 0 
0 0 0 0 0 0 0 0 
0 0 0 0 0 0 0 0 
0 0 0 0 0 0 0 0 
0 0 0 0 0 0 0 0 
0 0 0 0 0 0 0 0 
0 0 0 0 0 0 0 0 
0 0 0 0 0 0 0 0 
-8.799718409010884e-05 -8.799718409011060e-05 -8.799718409010887e-05 -8.799718409010884e-05 -8.799718409010711e-05 -8.799718409010711e-05 -8.799718409011058e-05 -8.799718409010711e-05 
0 0 0 0 0 0 0 0 
0 0 0 0 0 0 0 0 
-8.799718409010884e-05 -8.799718409011060e-05 -8.799718409010887e-05 -8.799718409010884e-05 -8.799718409010711e-05 -8.799718409010711e-05 -8.799718409011058e-05 -8.799718409010711e-05 
0 0 0 0 0 0 0 0 
0 0 0 0 0 0 0 0 
0 0 0 0 0 0 0 0 
-0.0005279831045406505 -0.0005279831045406640 -0.0005279831045406497 -0.0005279831045406495 -0.0005279831045406388 -0.0005279831045406403 -0.0005279831045406616 -0.0005279831045406408 
0 0 0 0 0 0 0 0 
0 0 0 0 0 0 0 0 
-0.0001759943681802177 -0.0001759943681802212 -0.0001759943681802177 -0.0001759943681802177 -0.0001759943681802142 -0.0001759943681802142 -0.0001759943681802212 -0.0001759943681802142 
0 0 0 0 0 0 0 0 
0 0 0 0 0 0 0 0 
-0.0005279831045406505 -0.0005279831045406640 -0.0005279831045406497 -0.0005279831045406495 -0.0005279831045406388 -0.0005279831045406403 -0.0005279831045406616 -0.0005279831045406408 
0 0 0 0 0 0 0 0 
-0.0001759943681802177 -0.0001759943681802212 -0.0001759943681802177 -0.0001759943681802177 -0.0001759943681802142 -0.0001759943681802142 -0.0001759943681802212 -0.0001759943681802142 
0 0 0 0 0 0 0 0 
-0.0002639915522703253 -0.0002639915522703320 -0.0002639915522703248 -0.0002639915522703247 -0.0002639915522703194 -0.0002639915522703202 -0.0002639915522703308 -0.0002639915522703204 
-8.799718409010884e-05 -8.799718409011060e-05 -8.799718409010887e-05 -8.799718409010884e-05 -8.799718409010711e-05 -8.799718409010711e-05 -8.799718409011058e-05 -8.799718409010711e-05 
0 0 0 0 0 0 0 0 
0 0 0 0 0 0 0 0 
0 0 0 0 0 0 0 0 
0 0 0 0 0 0 0 0 
0 0 0 0 0 0 0 0 
0 0 0 0 0 0 0 0 
0 0 0 0 0 0 0 0 
0 0 0 0 0 0 0 0 
0 0 0 0 0 0 0 0 
0 0 0 0 0 0 0 0 
0 0 0 0 0 0 0 0 
0 0 0 0 0 0 0 0 
0 0 0 0 0 0 0 0 
0 0 0 0 0 0 0 0 
0 0 0 0 0 0 0 0 
0 0 0 0 0 0 0 0 
0 0 0 0 0 0 0 0 
0 0 0 0 0 0 0 0 
-0.001319957761351641 -0.001319957761351687 -0.001319957761351640 -0.001319957761351647 -0.001319957761351633 -0.001319957761351626 -0.001319957761351687 -0.001319957761351612 
0 0 0 0 0 0 0 0 
0 0 0 0 0 0 0 0 
0 0 0 0 0 0 0 0 
0 0 0 0 0 0 0 0 
0 0 0 0 0 0 0 0 
0 0 0 0 0 0 0 0 
0 0 0 0 0 0 0 0 
-0.0001759943681802177 -0.0001759943681802212 -0.0001759943681802177 -0.0001759943681802177 -0.0001759943681802142 -0.0001759943681802142 -0.0001759943681802212 -0.0001759943681802142 
0 0 0 0 0 0 0 0 
0 0 0 0 0 0 0 0 
0 0 0 0 0 0 0 0 
0 0 0 0 0 0 0 0 
0 0 0 0 0 0 0 0 
0 0 0 0 0 0 0 0 
0 0 0 0 0 0 0 0 
-8.799718409010884e-05 -8.799718409011060e-05 -8.799718409010887e-05 -8.799718409010884e-05 -8.799718409010711e-05 -8.799718409010711e-05 -8.799718409011058e-05 -8.799718409010711e-05 
0 0 0 0 0 0 0 0 
0 0 0 0 0 0 0 0 
0 0 0 0 0 0 0 0 
0 0 0 0 0 0 0 0 
-8.799718409010884e-05 -8.799718409011060e-05 -8.799718409010887e-05 -8.799718409010884e-05 -8.799718409010711e-05 -8.799718409010711e-05 -8.799718409011058e-05 -8.799718409010711e-05 
0 0 0 0 0 0 0 0 
0 0 0 0 0 0 0 0 
0 0 0 0 0 0 0 0 
0 0 0 0 0 0 0 0 
-8.799718409010884e-05 -8.799718409011060e-05 -8.799718409010887e-05 -8.799718409010884e-05 -8.799718409010711e-05 -8.799718409010711e-05 -8.799718409011058e-05 -8.799718409010711e-05 
-8.799718409010884e-05 -8.799718409011060e-05 -8.799718409010887e-05 -8.799718409010884e-05 -8.799718409010711e-05 -8.799718409010711e-05 -8.799718409011058e-05 -8.799718409010711e-05 
0 0 0 0 0 0 0 0 
0 0 0 0 0 0 0 0 
0 0 0 0 0 0 0 0 
0 0 0 0 0 0 0 0 
0 0 0 0 0 0 0 0 
0 0 0 0 0 0 0 0 
0 0 0 0 0 0 0 0 
0 0 0 0 0 0 0 0 
0 0 0 0 0 0 0 0 
0 0 0 0 0 0 0 0 
-0.0001759943681802177 -0.0001759943681802212 -0.0001759943681802177 -0.0001759943681802177 -0.0001759943681802142 -0.0001759943681802142 -0.0001759943681802212 -0.0001759943681802142 
0 0 0 0 0 0 0 0 
-8.799718409010884e-05 -8.799718409011060e-05 -8.799718409010887e-05 -8.799718409010884e-05 -8.799718409010711e-05 -8.799718409010711e-05 -8.799718409011058e-05 -8.799718409010711e-05 
-8.799718409010884e-05 -8.799718409011060e-05 -8.799718409010887e-05 -8.799718409010884e-05 -8.799718409010711e-05 -8.799718409010711e-05 -8.799718409011058e-05 -8.799718409010711e-05 
0 0 0 0 0 0 0 0 
0 0 0 0 0 0 0 0 
0 0 0 0 0 0 0 0 
0 0 0 0 0 0 0 0 
0 0 0 0 0 0 0 0 
-8.799718409010884e-05 -8.799718409011060e-05 -8.799718409010887e-05 -8.799718409010884e-05 -8.799718409010711e-05 -8.799718409010711e-05 -8.799718409011058e-05 -8.799718409010711e-05 
0 0 0 0 0 0 0 0 
0 0 0 0 0 0 0 0 
0 0 0 0 0 0 0 0 
0 0 0 0 0 0 0 0 
0 0 0 0 0 0 0 0 
0 0 0 0 0 0 0 0 
0 0 0 0 0 0 0 0 
0 0 0 0 0 0 0 0 
-0.0002639915522703253 -0.0002639915522703320 -0.0002639915522703248 -0.0002639915522703247 -0.0002639915522703194 -0.0002639915522703202 -0.0002639915522703308 -0.0002639915522703204 
0 0 0 0 0 0 0 0 
0 0 0 0 0 0 0 0 
0 0 0 0 0 0 0 0 
0 0 0 0 0 0 0 0 
-0.0001759943681802177 -0.0001759943681802212 -0.0001759943681802177 -0.0001759943681802177 -0.0001759943681802142 -0.0001759943681802142 -0.0001759943681802212 -0.0001759943681802142 
0 0 0 0 0 0 0 0 
-8.799718409010884e-05 -8.799718409011060e-05 -8.799718409010887e-05 -8.799718409010884e-05 -8.799718409010711e-05 -8.799718409010711e-05 -8.799718409011058e-05 -8.799718409010711e-05 
-8.799718409010884e-05 -8.799718409011060e-05 -8.799718409010887e-05 -8.799718409010884e-05 -8.799718409010711e-05 -8.799718409010711e-05 -8.799718409011058e-05 -8.799718409010711e-05 
0 0 0 0 0 0 0 0 
0 0 0 0 0 0 0 0 
0 0 0 0 0 0 0 0 
0 0 0 0 0 0 0 0 
-0.0001759943681802177 -0.0001759943681802212 -0.0001759943681802177 -0.0001759943681802177 -0.0001759943681802142 -0.0001759943681802142 -0.0001759943681802212 -0.0001759943681802142 
-8.799718409010884e-05 -8.799718409011060e-05 -8.799718409010887e-05 -8.799718409010884e-05 -8.799718409010711e-05 -8.799718409010711e-05 -8.799718409011058e-05 -8.799718409010711e-05 
0 0 0 0 0 0 0 0 
0 0 0 0 0 0 0 0 
0 0 0 0 0 0 0 0 
0 0 0 0 0 0 0 0 
-8.799718409010884e-05 -8.799718409011060e-05 -8.799718409010887e-05 -8.799718409010884e-05 -8.799718409010711e-05 -8.799718409010711e-05 -8.799718409011058e-05 -8.799718409010711e-05 
0 0 0 0 0 0 0 0 
0 0 0 0 0 0 0 0 
0 0 0 0 0 0 0 0 
-8.799718409010884e-05 -8.799718409011060e-05 -8.799718409010887e-05 -8.799718409010884e-05 -8.799718409010711e-05 -8.799718409010711e-05 -8.799718409011058e-05 -8.799718409010711e-05 
0 0 0 0 0 0 0 0 
0 0 0 0 0 0 0 0 
0 0 0 0 0 0 0 0 
0 0 0 0 0 0 0 0 
0 0 0 0 0 0 0 0 
0 0 0 0 0 0 0 0 
0 0 0 0 0 0 0 0 
0 0 0 0 0 0 0 0 
0 0 0 0 0 0 0 0 
0 0 0 0 0 0 0 0 
0 0 0 0 0 0 0 0 
0 0 0 0 0 0 0 0 
0 0 0 0 0 0 0 0 
0 0 0 0 0 0 0 0 
0 0 0 0 0 0 0 0 
-8.799718409010884e-05 -8.799718409011060e-05 -8.799718409010887e-05 -8.799718409010884e-05 -8.799718409010711e-05 -8.799718409010711e-05 -8.799718409011058e-05 -8.799718409010711e-05 
0 0 0 0 0 0 0 0 
-8.799718409010884e-05 -8.799718409011060e-05 -8.799718409010887e-05 -8.799718409010884e-05 -8.799718409010711e-05 -8.799718409010711e-05 -8.799718409011058e-05 -8.799718409010711e-05 
0 0 0 0 0 0 0 0 
0 0 0 0 0 0 0 0 
0 0 0 0 0 0 0 0 
0 0 0 0 0 0 0 0 
0 0 0 0 0 0 0 0 
0 0 0 0 0 0 0 0 
0 0 0 0 0 0 0 0 
0 0 0 0 0 0 0 0 
-8.799718409010884e-05 -8.799718409011060e-05 -8.799718409010887e-05 -8.799718409010884e-05 -8.799718409010711e-05 -8.799718409010711e-05 -8.799718409011058e-05 -8.799718409010711e-05 
0 0 0 0 0 0 0 0 
0 0 0 0 0 0 0 0 
-0.0007039774727208707 -0.0007039774727208848 -0.0007039774727208710 -0.0007039774727208707 -0.0007039774727208569 -0.0007039774727208569 -0.0007039774727208846 -0.0007039774727208569 
0 0 0 0 0 0 0 0 
0 0 0 0 0 0 0 0 
0 0 0 0 0 0 0 0 
0 0 0 0 0 0 0 0 
0 0 0 0 0 0 0 0 
0 0 0 0 0 0 0 0 
-8.799718409010884e-05 -8.799718409011060e-05 -8.799718409010887e-05 -8.799718409010884e-05 -8.799718409010711e-05 -8.799718409010711e-05 -8.799718409011058e-05 -8.799718409010711e-05 
0 0 0 0 0 0 0 0 
-0.0001759943681802177 -0.0001759943681802212 -0.0001759943681802177 -0.0001759943681802177 -0.0001759943681802142 -0.0001759943681802142 -0.0001759943681802212 -0.0001759943681802142 
0 0 0 0 0 0 0 0 
-0.0009679690249912020 -0.0009679690249912167 -0.0009679690249912024 -0.0009679690249911989 -0.0009679690249911788 -0.0009679690249911792 -0.0009679690249912189 -0.0009679690249911773 
0 0 0 0 0 0 0 0 
0 0 0 0 0 0 0 0 
0 0 0 0 0 0 0 0 
0 0 0 0 0 0 0 0 
-8.799718409010884e-05 -8.799718409011060e-05 -8.799718409010887e-05 -8.799718409010884e-05 -8.799718409010711e-05 -8.799718409010711e-05 -8.799718409011058e-05 -8.799718409010711e-05 
0 0 0 0 0 0 0 0 
0 0 0 0 0 0 0 0 
0 0 0 0 0 0 0 0 
0 0 0 0 0 0 0 0 
0 0 0 0 0 0 0 0 
0 0 0 0 0 0 0 0 
-0.0001759943681802177 -0.0001759943681802212 -0.0001759943681802177 -0.0001759943681802177 -0.0001759943681802142 -0.0001759943681802142 -0.0001759943681802212 -0.0001759943681802142 
0 0 0 0 0 0 0 0 
0 0 0 0 0 0 0 0 
0 0 0 0 0 0 0 0 
-8.799718409010884e-05 -8.799718409011060e-05 -8.799718409010887e-05 -8.799718409010884e-05 -8.799718409010711e-05 -8.799718409010711e-05 -8.799718409011058e-05 -8.799718409010711e-05 
0 0 0 0 0 0 0 0 
0 0 0 0 0 0 0 0 
-8.799718409010884e-05 -8.799718409011060e-05 -8.799718409010887e-05 -8.799718409010884e-05 -8.799718409010711e-05 -8.799718409010711e-05 -8.799718409011058e-05 -8.799718409010711e-05 
0 0 0 0 0 0 0 0 
0 0 0 0 0 0 0 0 
-8.799718409010884e-05 -8.799718409011060e-05 -8.799718409010887e-05 -8.799718409010884e-05 -8.799718409010711e-05 -8.799718409010711e-05 -8.799718409011058e-05 -8.799718409010711e-05 
-8.799718409010884e-05 -8.799718409011060e-05 -8.799718409010887e-05 -8.799718409010884e-05 -8.799718409010711e-05 -8.799718409010711e-05 -8.799718409011058e-05 -8.799718409010711e-05 
0 0 0 0 0 0 0 0 
0 0 0 0 0 0 0 0 
0 0 0 0 0 0 0 0 
-8.799718409010884e-05 -8.799718409011060e-05 -8.799718409010887e-05 -8.799718409010884e-05 -8.799718409010711e-05 -8.799718409010711e-05 -8.799718409011058e-05 -8.799718409010711e-05 
-0.0001759943681802177 -0.0001759943681802212 -0.0001759943681802177 -0.0001759943681802177 -0.0001759943681802142 -0.0001759943681802142 -0.0001759943681802212 -0.0001759943681802142 
0 0 0 0 0 0 0 0 
0 0 0 0 0 0 0 0 
0 0 0 0 0 0 0 0 
-8.799718409010884e-05 -8.799718409011060e-05 -8.799718409010887e-05 -8.799718409010884e-05 -8.799718409010711e-05 -8.799718409010711e-05 -8.799718409011058e-05 -8.799718409010711e-05 
0 0 0 0 0 0 0 0 
0 0 0 0 0 0 0 0 
0 0 0 0 0 0 0 0 
0 0 0 0 0 0 0 0 
-0.0001759943681802177 -0.0001759943681802212 -0.0001759943681802177 -0.0001759943681802177 -0.0001759943681802142 -0.0001759943681802142 -0.0001759943681802212 -0.0001759943681802142 
0 0 0 0 0 0 0 0 
0 0 0 0 0 0 0 0 
0 0 0 0 0 0 0 0 
-0.0003519887363604354 -0.0003519887363604424 -0.0003519887363604355 -0.0003519887363604354 -0.0003519887363604284 -0.0003519887363604284 -0.0003519887363604423 -0.0003519887363604284 
0 0 0 0 0 0 0 0 
0 0 0 0 0 0 0 0 
0 0 0 0 0 0 0 0 
0 0 0 0 0 0 0 0 
0 0 0 0 0 0 0 0 
0 0 0 0 0 0 0 0 
-8.799718409010884e-05 -8.799718409011060e-05 -8.799718409010887e-05 -8.799718409010884e-05 -8.799718409010711e-05 -8.799718409010711e-05 -8.799718409011058e-05 -8.799718409010711e-05 
0 0 0 0 0 0 0 0 
0 0 0 0 0 0 0 0 
0 0 0 0 0 0 0 0 
0 0 0 0 0 0 0 0 
0 0 0 0 0 0 0 0 
-8.799718409010884e-05 -8.799718409011060e-05 -8.799718409010887e-05 -8.799718409010884e-05 -8.799718409010711e-05 -8.799718409010711e-05 -8.799718409011058e-05 -8.799718409010711e-05 
0 0 0 0 0 0 0 0 
0 0 0 0 0 0 0 0 
0 0 0 0 0 0 0 0 
0 0 0 0 0 0 0 0 
0 0 0 0 0 0 0 0 
-8.799718409010884e-05 -8.799718409011060e-05 -8.799718409010887e-05 -8.799718409010884e-05 -8.799718409010711e-05 -8.799718409010711e-05 -8.799718409011058e-05 -8.799718409010711e-05 
0 0 0 0 0 0 0 0 
-8.799718409010884e-05 -8.799718409011060e-05 -8.799718409010887e-05 -8.799718409010884e-05 -8.799718409010711e-05 -8.799718409010711e-05 -8.799718409011058e-05 -8.799718409010711e-05 
0 0 0 0 0 0 0 0 
0 0 0 0 0 0 0 0 
0 0 0 0 0 0 0 0 
0 0 0 0 0 0 0 0 
0 0 0 0 0 0 0 0 
-8.799718409010884e-05 -8.799718409011060e-05 -8.799718409010887e-05 -8.799718409010884e-05 -8.799718409010711e-05 -8.799718409010711e-05 -8.799718409011058e-05 -8.799718409010711e-05 
-8.799718409010884e-05 -8.799718409011060e-05 -8.799718409010887e-05 -8.799718409010884e-05 -8.799718409010711e-05 -8.799718409010711e-05 -8.799718409011058e-05 -8.799718409010711e-05 
0 0 0 0 0 0 0 0 
-8.799718409010884e-05 -8.799718409011060e-05 -8.799718409010887e-05 -8.799718409010884e-05 -8.799718409010711e-05 -8.799718409010711e-05 -8.799718409011058e-05 -8.799718409010711e-05 
-8.799718409010884e-05 -8.799718409011060e-05 -8.799718409010887e-05 -8.799718409010884e-05 -8.799718409010711e-05 -8.799718409010711e-05 -8.799718409011058e-05 -8.799718409010711e-05 
-0.001407954945441742 -0.001407954945441770 -0.001407954945441742 -0.001407954945441742 -0.001407954945441714 -0.001407954945441714 -0.001407954945441769 -0.001407954945441714 
-8.799718409010884e-05 -8.799718409011060e-05 -8.799718409010887e-05 -8.799718409010884e-05 -8.799718409010711e-05 -8.799718409010711e-05 -8.799718409011058e-05 -8.799718409010711e-05 
0 0 0 0 0 0 0 0 
0 0 0 0 0 0 0 0 
0 0 0 0 0 0 0 0 
-8.799718409010884e-05 -8.799718409011060e-05 -8.799718409010887e-05 -8.799718409010884e-05 -8.799718409010711e-05 -8.799718409010711e-05 -8.799718409011058e-05 -8.799718409010711e-05 
0 0 0 0 0 0 0 0 
0 0 0 0 0 0 0 0 
0 0 0 0 0 0 0 0 
0 0 0 0 0 0 0 0 
-8.799718409010884e-05 -8.799718409011060e-05 -8.799718409010887e-05 -8.799718409010884e-05 -8.799718409010711e-05 -8.799718409010711e-05 -8.799718409011058e-05 -8.799718409010711e-05 
0 0 0 0 0 0 0 0 
0 0 0 0 0 0 0 0 
-8.799718409010884e-05 -8.799718409011060e-05 -8.799718409010887e-05 -8.799718409010884e-05 -8.799718409010711e-05 -8.799718409010711e-05 -8.799718409011058e-05 -8.799718409010711e-05 
0 0 0 0 0 0 0 0 
0 0 0 0 0 0 0 0 
0 0 0 0 0 0 0 0 
0 0 0 0 0 0 0 0 
-8.799718409010884e-05 -8.799718409011060e-05 -8.799718409010887e-05 -8.799718409010884e-05 -8.799718409010711e-05 -8.799718409010711e-05 -8.799718409011058e-05 -8.799718409010711e-05 
-8.799718409010884e-05 -8.799718409011060e-05 -8.799718409010887e-05 -8.799718409010884e-05 -8.799718409010711e-05 -8.799718409010711e-05 -8.799718409011058e-05 -8.799718409010711e-05 
0 0 0 0 0 0 0 0 
0 0 0 0 0 0 0 0 
0 0 0 0 0 0 0 0 
0 0 0 0 0 0 0 0 
0 0 0 0 0 0 0 0 
0 0 0 0 0 0 0 0 
0 0 0 0 0 0 0 0 
0 0 0 0 0 0 0 0 
0 0 0 0 0 0 0 0 
0 0 0 0 0 0 0 0 
0 0 0 0 0 0 0 0 
0 0 0 0 0 0 0 0 
0 0 0 0 0 0 0 0 
-8.799718409010884e-05 -8.799718409011060e-05 -8.799718409010887e-05 -8.799718409010884e-05 -8.799718409010711e-05 -8.799718409010711e-05 -8.799718409011058e-05 -8.799718409010711e-05 
0 0 0 0 0 0 0 0 
0 0 0 0 0 0 0 0 
0 0 0 0 0 0 0 0 
0 0 0 0 0 0 0 0 
0 0 0 0 0 0 0 0 
0 0 0 0 0 0 0 0 
0 0 0 0 0 0 0 0 
-8.799718409010884e-05 -8.799718409011060e-05 -8.799718409010887e-05 -8.799718409010884e-05 -8.799718409010711e-05 -8.799718409010711e-05 -8.799718409011058e-05 -8.799718409010711e-05 
0 0 0 0 0 0 0 0 
0 0 0 0 0 0 0 0 
-8.799718409010884e-05 -8.799718409011060e-05 -8.799718409010887e-05 -8.799718409010884e-05 -8.799718409010711e-05 -8.799718409010711e-05 -8.799718409011058e-05 -8.799718409010711e-05 
0 0 0 0 0 0 0 0 
0 0 0 0 0 0 0 0 
0 0 0 0 0 0 0 0 
0 0 0 0 0 0 0 0 
0 0 0 0 0 0 0 0 
0 0 0 0 0 0 0 0 
0 0 0 0 0 0 0 0 
0 0 0 0 0 0 0 0 
0 0 0 0 0 0 0 0 
0 0 0 0 0 0 0 0 
0 0 0 0 0 0 0 0 
0 0 0 0 0 0 0 0 
0 0 0 0 0 0 0 0 
0 0 0 0 0 0 0 0 
0 0 0 0 0 0 0 0 
-0.0004399859204505455 -0.0004399859204505529 -0.0004399859204505461 -0.0004399859204505460 -0.0004399859204505375 -0.0004399859204505367 -0.0004399859204505538 -0.0004399859204505365 
-0.0003519887363604354 -0.0003519887363604424 -0.0003519887363604355 -0.0003519887363604354 -0.0003519887363604284 -0.0003519887363604284 -0.0003519887363604423 -0.0003519887363604284 
0 0 0 0 0 0 0 0 
0 0 0 0 0 0 0 0 
-8.799718409010884e-05 -8.799718409011060e-05 -8.799718409010887e-05 -8.799718409010884e-05 -8.799718409010711e-05 -8.799718409010711e-05 -8.799718409011058e-05 -8.799718409010711e-05 
0 0 0 0 0 0 0 0 
0 0 0 0 0 0 0 0 
0 0 0 0 0 0 0 0 
0 0 0 0 0 0 0 0 
0 0 0 0 0 0 0 0 
0 0 0 0 0 0 0 0 
0 0 0 0 0 0 0 0 
0 0 0 0 0 0 0 0 
0 0 0 0 0 0 0 0 
-0.0005279831045406505 -0.0005279831045406640 -0.0005279831045406497 -0.0005279831045406495 -0.0005279831045406388 -0.0005279831045406403 -0.0005279831045406616 -0.0005279831045406408 
0 0 0 0 0 0 0 0 
0 0 0 0 0 0 0 0 
0 0 0 0 0 0 0 0 
0 0 0 0 0 0 0 0 
0 0 0 0 0 0 0 0 
0 0 0 0 0 0 0 0 
0 0 0 0 0 0 0 0 
0 0 0 0 0 0 0 0 
0 0 0 0 0 0 0 0 
0 0 0 0 0 0 0 0 
0 0 0 0 0 0 0 0 
0 0 0 0 0 0 0 0 
0 0 0 0 0 0 0 0 
0 0 0 0 0 0 0 0 
-0.0001759943681802177 -0.0001759943681802212 -0.0001759943681802177 -0.0001759943681802177 -0.0001759943681802142 -0.0001759943681802142 -0.0001759943681802212 -0.0001759943681802142 
0 0 0 0 0 0 0 0 
-8.799718409010884e-05 -8.799718409011060e-05 -8.799718409010887e-05 -8.799718409010884e-05 -8.799718409010711e-05 -8.799718409010711e-05 -8.799718409011058e-05 -8.799718409010711e-05 
-0.001495952129531842 -0.001495952129531852 -0.001495952129531844 -0.001495952129531836 -0.001495952129531794 -0.001495952129531802 -0.001495952129531851 -0.001495952129531816 
0 0 0 0 0 0 0 0 
0 0 0 0 0 0 0 0 
0 0 0 0 0 0 0 0 
0 0 0 0 0 0 0 0 
0 0 0 0 0 0 0 0 
0 0 0 0 0 0 0 0 
0 0 0 0 0 0 0 0 
0 0 0 0 0 0 0 0 
0 0 0 0 0 0 0 0 
0 0 0 0 0 0 0 0 
0 0 0 0 0 0 0 0 
0 0 0 0 0 0 0 0 
0 0 0 0 0 0 0 0 
0 0 0 0 0 0 0 0 
0 0 0 0 0 0 0 0 
0 0 0 0 0 0 0 0 
0 0 0 0 0 0 0 0 
0 0 0 0 0 0 0 0 
0 0 0 0 0 0 0 0 
0 0 0 0 0 0 0 0 
0 0 0 0 0 0 0 0 
0 0 0 0 0 0 0 0 
-8.799718409010884e-05 -8.799718409011060e-05 -8.799718409010887e-05 -8.799718409010884e-05 -8.799718409010711e-05 -8.799718409010711e-05 -8.799718409011058e-05 -8.799718409010711e-05 
0 0 0 0 0 0 0 0 
-0.0002639915522703253 -0.0002639915522703320 -0.0002639915522703248 -0.0002639915522703247 -0.0002639915522703194 -0.0002639915522703202 -0.0002639915522703308 -0.0002639915522703204 
0 0 0 0 0 0 0 0 
-8.799718409010884e-05 -8.799718409011060e-05 -8.799718409010887e-05 -8.799718409010884e-05 -8.799718409010711e-05 -8.799718409010711e-05 -8.799718409011058e-05 -8.799718409010711e-05 
0 0 0 0 0 0 0 0 
0 0 0 0 0 0 0 0 
0 0 0 0 0 0 0 0 
0 0 0 0 0 0 0 0 
0 0 0 0 0 0 0 0 
0 0 0 0 0 0 0 0 
0 0 0 0 0 0 0 0 
0 0 0 0 0 0 0 0 
0 0 0 0 0 0 0 0 
0 0 0 0 0 0 0 0 
0 0 0 0 0 0 0 0 
0 0 0 0 0 0 0 0 
0 0 0 0 0 0 0 0 
0 0 0 0 0 0 0 0 
0 0 0 0 0 0 0 0 
-0.0001759943681802177 -0.0001759943681802212 -0.0001759943681802177 -0.0001759943681802177 -0.0001759943681802142 -0.0001759943681802142 -0.0001759943681802212 -0.0001759943681802142 
0 0 0 0 0 0 0 0 
0 0 0 0 0 0 0 0 
0 0 0 0 0 0 0 0 
0 0 0 0 0 0 0 0 
0 0 0 0 0 0 0 0 
0 0 0 0 0 0 0 0 
0 0 0 0 0 0 0 0 
0 0 0 0 0 0 0 0 
0 0 0 0 0 0 0 0 
0 0 0 0 0 0 0 0 
-0.0004399859204505455 -0.0004399859204505529 -0.0004399859204505461 -0.0004399859204505460 -0.0004399859204505375 -0.0004399859204505367 -0.0004399859204505538 -0.0004399859204505365 
0 0 0 0 0 0 0 0 
-8.799718409010884e-05 -8.799718409011060e-05 -8.799718409010887e-05 -8.799718409010884e-05 -8.799718409010711e-05 -8.799718409010711e-05 -8.799718409011058e-05 -8.799718409010711e-05 
-8.799718409010884e-05 -8.799718409011060e-05 -8.799718409010887e-05 -8.799718409010884e-05 -8.799718409010711e-05 -8.799718409010711e-05 -8.799718409011058e-05 -8.799718409010711e-05 
0 0 0 0 0 0 0 0 
0 0 0 0 0 0 0 0 
0 0 0 0 0 0 0 0 
0 0 0 0 0 0 0 0 
0 0 0 0 0 0 0 0 
0 0 0 0 0 0 0 0 
0 0 0 0 0 0 0 0 
-8.799718409010884e-05 -8.799718409011060e-05 -8.799718409010887e-05 -8.799718409010884e-05 -8.799718409010711e-05 -8.799718409010711e-05 -8.799718409011058e-05 -8.799718409010711e-05 
-8.799718409010884e-05 -8.799718409011060e-05 -8.799718409010887e-05 -8.799718409010884e-05 -8.799718409010711e-05 -8.799718409010711e-05 -8.799718409011058e-05 -8.799718409010711e-05 
0 0 0 0 0 0 0 0 
0 0 0 0 0 0 0 0 
0 0 0 0 0 0 0 0 
0 0 0 0 0 0 0 0 
0 0 0 0 0 0 0 0 
0 0 0 0 0 0 0 0 
0 0 0 0 0 0 0 0 
-8.799718409010884e-05 -8.799718409011060e-05 -8.799718409010887e-05 -8.799718409010884e-05 -8.799718409010711e-05 -8.799718409010711e-05 -8.799718409011058e-05 -8.799718409010711e-05 
0 0 0 0 0 0 0 0 
-8.799718409010884e-05 -8.799718409011060e-05 -8.799718409010887e-05 -8.799718409010884e-05 -8.799718409010711e-05 -8.799718409010711e-05 -8.799718409011058e-05 -8.799718409010711e-05 
0 0 0 0 0 0 0 0 
0 0 0 0 0 0 0 0 
0 0 0 0 0 0 0 0 
0 0 0 0 0 0 0 0 
-0.0001759943681802177 -0.0001759943681802212 -0.0001759943681802177 -0.0001759943681802177 -0.0001759943681802142 -0.0001759943681802142 -0.0001759943681802212 -0.0001759943681802142 
0 0 0 0 0 0 0 0 
0 0 0 0 0 0 0 0 
0 0 0 0 0 0 0 0 
0 0 0 0 0 0 0 0 
0 0 0 0 0 0 0 0 
0 0 0 0 0 0 0 0 
0 0 0 0 0 0 0 0 
0 0 0 0 0 0 0 0 
0 0 0 0 0 0 0 0 
0 0 0 0 0 0 0 0 
0 0 0 0 0 0 0 0 
0 0 0 0 0 0 0 0 
0 0 0 0 0 0 0 0 
0 0 0 0 0 0 0 0 
0 0 0 0 0 0 0 0 
0 0 0 0 0 0 0 0 
0 0 0 0 0 0 0 0 
0 0 0 0 0 0 0 0 
-8.799718409010884e-05 -8.799718409011060e-05 -8.799718409010887e-05 -8.799718409010884e-05 -8.799718409010711e-05 -8.799718409010711e-05 -8.799718409011058e-05 -8.799718409010711e-05 
-8.799718409010884e-05 -8.799718409011060e-05 -8.799718409010887e-05 -8.799718409010884e-05 -8.799718409010711e-05 -8.799718409010711e-05 -8.799718409011058e-05 -8.799718409010711e-05 
0 0 0 0 0 0 0 0 
0 0 0 0 0 0 0 0 
0 0 0 0 0 0 0 0 
0 0 0 0 0 0 0 0 
-8.799718409010884e-05 -8.799718409011060e-05 -8.799718409010887e-05 -8.799718409010884e-05 -8.799718409010711e-05 -8.799718409010711e-05 -8.799718409011058e-05 -8.799718409010711e-05 
0 0 0 0 0 0 0 0 
0 0 0 0 0 0 0 0 
0 0 0 0 0 0 0 0 
0 0 0 0 0 0 0 0 
0 0 0 0 0 0 0 0 
0 0 0 0 0 0 0 0 
-8.799718409010884e-05 -8.799718409011060e-05 -8.799718409010887e-05 -8.799718409010884e-05 -8.799718409010711e-05 -8.799718409010711e-05 -8.799718409011058e-05 -8.799718409010711e-05 
0 0 0 0 0 0 0 0 
0 0 0 0 0 0 0 0 
0 0 0 0 0 0 0 0 
0 0 0 0 0 0 0 0 
0 0 0 0 0 0 0 0 
0 0 0 0 0 0 0 0 
0 0 0 0 0 0 0 0 
0 0 0 0 0 0 0 0 
0 0 0 0 0 0 0 0 
0 0 0 0 0 0 0 0 
0 0 0 0 0 0 0 0 
0 0 0 0 0 0 0 0 
0 0 0 0 0 0 0 0 
0 0 0 0 0 0 0 0 
0 0 0 0 0 0 0 0 
0 0 0 0 0 0 0 0 
0 0 0 0 0 0 0 0 
0 0 0 0 0 0 0 0 
0 0 0 0 0 0 0 0 
0 0 0 0 0 0 0 0 
-8.799718409010884e-05 -8.799718409011060e-05 -8.799718409010887e-05 -8.799718409010884e-05 -8.799718409010711e-05 -8.799718409010711e-05 -8.799718409011058e-05 -8.799718409010711e-05 
0 0 0 0 0 0 0 0 
0 0 0 0 0 0 0 0 
0 0 0 0 0 0 0 0 
0 0 0 0 0 0 0 0 
0 0 0 0 0 0 0 0 
0 0 0 0 0 0 0 0 
0 0 0 0 0 0 0 0 
0 0 0 0 0 0 0 0 
-8.799718409010884e-05 -8.799718409011060e-05 -8.799718409010887e-05 -8.799718409010884e-05 -8.799718409010711e-05 -8.799718409010711e-05 -8.799718409011058e-05 -8.799718409010711e-05 
0 0 0 0 0 0 0 0 
0 0 0 0 0 0 0 0 
0 0 0 0 0 0 0 0 
0 0 0 0 0 0 0 0 
0 0 0 0 0 0 0 0 
-8.799718409010884e-05 -8.799718409011060e-05 -8.799718409010887e-05 -8.799718409010884e-05 -8.799718409010711e-05 -8.799718409010711e-05 -8.799718409011058e-05 -8.799718409010711e-05 
0 0 0 0 0 0 0 0 
-0.0004399859204505455 -0.0004399859204505529 -0.0004399859204505461 -0.0004399859204505460 -0.0004399859204505375 -0.0004399859204505367 -0.0004399859204505538 -0.0004399859204505365 
0 0 0 0 0 0 0 0 
0 0 0 0 0 0 0 0 
0 0 0 0 0 0 0 0 
0 0 0 0 0 0 0 0 
0 0 0 0 0 0 0 0 
0 0 0 0 0 0 0 0 
-8.799718409010884e-05 -8.799718409011060e-05 -8.799718409010887e-05 -8.799718409010884e-05 -8.799718409010711e-05 -8.799718409010711e-05 -8.799718409011058e-05 -8.799718409010711e-05 
0 0 0 0 0 0 0 0 
0 0 0 0 0 0 0 0 
0 0 0 0 0 0 0 0 
0 0 0 0 0 0 0 0 
0 0 0 0 0 0 0 0 
-8.799718409010884e-05 -8.799718409011060e-05 -8.799718409010887e-05 -8.799718409010884e-05 -8.799718409010711e-05 -8.799718409010711e-05 -8.799718409011058e-05 -8.799718409010711e-05 
0 0 0 0 0 0 0 0 
0 0 0 0 0 0 0 0 
0 0 0 0 0 0 0 0 
0 0 0 0 0 0 0 0 
0 0 0 0 0 0 0 0 
0 0 0 0 0 0 0 0 
-8.799718409010884e-05 -8.799718409011060e-05 -8.799718409010887e-05 -8.799718409010884e-05 -8.799718409010711e-05 -8.799718409010711e-05 -8.799718409011058e-05 -8.799718409010711e-05 
0 0 0 0 0 0 0 0 
0 0 0 0 0 0 0 0 
-0.001319957761351641 -0.001319957761351687 -0.001319957761351640 -0.001319957761351647 -0.001319957761351633 -0.001319957761351626 -0.001319957761351687 -0.001319957761351612 
0 0 0 0 0 0 0 0 
0 0 0 0 0 0 0 0 
0 0 0 0 0 0 0 0 
-0.0002639915522703253 -0.0002639915522703320 -0.0002639915522703248 -0.0002639915522703247 -0.0002639915522703194 -0.0002639915522703202 -0.0002639915522703308 -0.0002639915522703204 
0 0 0 0 0 0 0 0 
0 0 0 0 0 0 0 0 
0 0 0 0 0 0 0 0 
-0.0005279831045406505 -0.0005279831045406640 -0.0005279831045406497 -0.0005279831045406495 -0.0005279831045406388 -0.0005279831045406403 -0.0005279831045406616 -0.0005279831045406408 
0 0 0 0 0 0 0 0 
0 0 0 0 0 0 0 0 
0 0 0 0 0 0 0 0 
0 0 0 0 0 0 0 0 
0 0 0 0 0 0 0 0 
0 0 0 0 0 0 0 0 
0 0 0 0 0 0 0 0 
0 0 0 0 0 0 0 0 
-8.799718409010884e-05 -8.799718409011060e-05 -8.799718409010887e-05 -8.799718409010884e-05 -8.799718409010711e-05 -8.799718409010711e-05 -8.799718409011058e-05 -8.799718409010711e-05 
0 0 0 0 0 0 0 0 
-8.799718409010884e-05 -8.799718409011060e-05 -8.799718409010887e-05 -8.799718409010884e-05 -8.799718409010711e-05 -8.799718409010711e-05 -8.799718409011058e-05 -8.799718409010711e-05 
0 0 0 0 0 0 0 0 
0 0 0 0 0 0 0 0 
0 0 0 0 0 0 0 0 
0 0 0 0 0 0 0 0 
0 0 0 0 0 0 0 0 
0 0 0 0 0 0 0 0 
0 0 0 0 0 0 0 0 
0 0 0 0 0 0 0 0 
0 0 0 0 0 0 0 0 
-8.799718409010884e-05 -8.799718409011060e-05 -8.799718409010887e-05 -8.799718409010884e-05 -8.799718409010711e-05 -8.799718409010711e-05 -8.799718409011058e-05 -8.799718409010711e-05 
-0.0004399859204505455 -0.0004399859204505529 -0.0004399859204505461 -0.0004399859204505460 -0.0004399859204505375 -0.0004399859204505367 -0.0004399859204505538 -0.0004399859204505365 
-8.799718409010884e-05 -8.799718409011060e-05 -8.799718409010887e-05 -8.799718409010884e-05 -8.799718409010711e-05 -8.799718409010711e-05 -8.799718409011058e-05 -8.799718409010711e-05 
0 0 0 0 0 0 0 0 
0 0 0 0 0 0 0 0 
0 0 0 0 0 0 0 0 
0 0 0 0 0 0 0 0 
0 0 0 0 0 0 0 0 
0 0 0 0 0 0 0 0 
0 0 0 0 0 0 0 0 
0 0 0 0 0 0 0 0 
-0.0001759943681802177 -0.0001759943681802212 -0.0001759943681802177 -0.0001759943681802177 -0.0001759943681802142 -0.0001759943681802142 -0.0001759943681802212 -0.0001759943681802142 
0 0 0 0 0 0 0 0 
0 0 0 0 0 0 0 0 
0 0 0 0 0 0 0 0 
0 0 0 0 0 0 0 0 
0 0 0 0 0 0 0 0 
0 0 0 0 0 0 0 0 
0 0 0 0 0 0 0 0 
0 0 0 0 0 0 0 0 
0 0 0 0 0 0 0 0 
0 0 0 0 0 0 0 0 
0 0 0 0 0 0 0 0 
0 0 0 0 0 0 0 0 
0 0 0 0 0 0 0 0 
0 0 0 0 0 0 0 0 
0 0 0 0 0 0 0 0 
0 0 0 0 0 0 0 0 
-8.799718409010884e-05 -8.799718409011060e-05 -8.799718409010887e-05 -8.799718409010884e-05 -8.799718409010711e-05 -8.799718409010711e-05 -8.799718409011058e-05 -8.799718409010711e-05 
0 0 0 0 0 0 0 0 
0 0 0 0 0 0 0 0 
0 0 0 0 0 0 0 0 
0 0 0 0 0 0 0 0 
-8.799718409010884e-05 -8.799718409011060e-05 -8.799718409010887e-05 -8.799718409010884e-05 -8.799718409010711e-05 -8.799718409010711e-05 -8.799718409011058e-05 -8.799718409010711e-05 
0 0 0 0 0 0 0 0 
0 0 0 0 0 0 0 0 
-0.0003519887363604354 -0.0003519887363604424 -0.0003519887363604355 -0.0003519887363604354 -0.0003519887363604284 -0.0003519887363604284 -0.0003519887363604423 -0.0003519887363604284 
-8.799718409010884e-05 -8.799718409011060e-05 -8.799718409010887e-05 -8.799718409010884e-05 -8.799718409010711e-05 -8.799718409010711e-05 -8.799718409011058e-05 -8.799718409010711e-05 
0 0 0 0 0 0 0 0 
0 0 0 0 0 0 0 0 
0 0 0 0 0 0 0 0 
0 0 0 0 0 0 0 0 
0 0 0 0 0 0 0 0 
0 0 0 0 0 0 0 0 
0 0 0 0 0 0 0 0 
0 0 0 0 0 0 0 0 
0 0 0 0 0 0 0 0 
-8.799718409010884e-05 -8.799718409011060e-05 -8.799718409010887e-05 -8.799718409010884e-05 -8.799718409010711e-05 -8.799718409010711e-05 -8.799718409011058e-05 -8.799718409010711e-05 
0 0 0 0 0 0 0 0 
0 0 0 0 0 0 0 0 
0 0 0 0 0 0 0 0 
0 0 0 0 0 0 0 0 
-0.0001759943681802177 -0.0001759943681802212 -0.0001759943681802177 -0.0001759943681802177 -0.0001759943681802142 -0.0001759943681802142 -0.0001759943681802212 -0.0001759943681802142 
0 0 0 0 0 0 0 0 
0 0 0 0 0 0 0 0 
-8.799718409010884e-05 -8.799718409011060e-05 -8.799718409010887e-05 -8.799718409010884e-05 -8.799718409010711e-05 -8.799718409010711e-05 -8.799718409011058e-05 -8.799718409010711e-05 
0 0 0 0 0 0 0 0 
0 0 0 0 0 0 0 0 
-0.0001759943681802177 -0.0001759943681802212 -0.0001759943681802177 -0.0001759943681802177 -0.0001759943681802142 -0.0001759943681802142 -0.0001759943681802212 -0.0001759943681802142 
0 0 0 0 0 0 0 0 
0 0 0 0 0 0 0 0 
0 0 0 0 0 0 0 0 
0 0 0 0 0 0 0 0 
0 0 0 0 0 0 0 0 
0 0 0 0 0 0 0 0 
0 0 0 0 0 0 0 0 
0 0 0 0 0 0 0 0 
-0.0001759943681802177 -0.0001759943681802212 -0.0001759943681802177 -0.0001759943681802177 -0.0001759943681802142 -0.0001759943681802142 -0.0001759943681802212 -0.0001759943681802142 
0 0 0 0 0 0 0 0 
0 0 0 0 0 0 0 0 
0 0 0 0 0 0 0 0 
0 0 0 0 0 0 0 0 
0 0 0 0 0 0 0 0 
0 0 0 0 0 0 0 0 
0 0 0 0 0 0 0 0 
0 0 0 0 0 0 0 0 
0 0 0 0 0 0 0 0 
-8.799718409010884e-05 -8.799718409011060e-05 -8.799718409010887e-05 -8.799718409010884e-05 -8.799718409010711e-05 -8.799718409010711e-05 -8.799718409011058e-05 -8.799718409010711e-05 
0 0 0 0 0 0 0 0 
0 0 0 0 0 0 0 0 
0 0 0 0 0 0 0 0 
0 0 0 0 0 0 0 0 
0 0 0 0 0 0 0 0 
0 0 0 0 0 0 0 0 
0 0 0 0 0 0 0 0 
0 0 0 0 0 0 0 0 
0 0 0 0 0 0 0 0 
0 0 0 0 0 0 0 0 
-8.799718409010884e-05 -8.799718409011060e-05 -8.799718409010887e-05 -8.799718409010884e-05 -8.799718409010711e-05 -8.799718409010711e-05 -8.799718409011058e-05 -8.799718409010711e-05 
0 0 0 0 0 0 0 0 
0 0 0 0 0 0 0 0 
0 0 0 0 0 0 0 0 
0 0 0 0 0 0 0 0 
0 0 0 0 0 0 0 0 
0 0 0 0 0 0 0 0 
0 0 0 0 0 0 0 0 
-0.0002639915522703253 -0.0002639915522703320 -0.0002639915522703248 -0.0002639915522703247 -0.0002639915522703194 -0.0002639915522703202 -0.0002639915522703308 -0.0002639915522703204 
-8.799718409010884e-05 -8.799718409011060e-05 -8.799718409010887e-05 -8.799718409010884e-05 -8.799718409010711e-05 -8.799718409010711e-05 -8.799718409011058e-05 -8.799718409010711e-05 
0 0 0 0 0 0 0 0 
0 0 0 0 0 0 0 0 
0 0 0 0 0 0 0 0 
0 0 0 0 0 0 0 0 
0 0 0 0 0 0 0 0 
0 0 0 0 0 0 0 0 
-0.0005279831045406505 -0.0005279831045406640 -0.0005279831045406497 -0.0005279831045406495 -0.0005279831045406388 -0.0005279831045406403 -0.0005279831045406616 -0.0005279831045406408 
0 0 0 0 0 0 0 0 
0 0 0 0 0 0 0 0 
-8.799718409010884e-05 -8.799718409011060e-05 -8.799718409010887e-05 -8.799718409010884e-05 -8.799718409010711e-05 -8.799718409010711e-05 -8.799718409011058e-05 -8.799718409010711e-05 
-8.799718409010884e-05 -8.799718409011060e-05 -8.799718409010887e-05 -8.799718409010884e-05 -8.799718409010711e-05 -8.799718409010711e-05 -8.799718409011058e-05 -8.799718409010711e-05 
0 0 0 0 0 0 0 0 
0 0 0 0 0 0 0 0 
0 0 0 0 0 0 0 0 
0 0 0 0 0 0 0 0 
0 0 0 0 0 0 0 0 
0 0 0 0 0 0 0 0 
-8.799718409010884e-05 -8.799718409011060e-05 -8.799718409010887e-05 -8.799718409010884e-05 -8.799718409010711e-05 -8.799718409010711e-05 -8.799718409011058e-05 -8.799718409010711e-05 
0 0 0 0 0 0 0 0 
0 0 0 0 0 0 0 0 
0 0 0 0 0 0 0 0 
-0.0003519887363604354 -0.0003519887363604424 -0.0003519887363604355 -0.0003519887363604354 -0.0003519887363604284 -0.0003519887363604284 -0.0003519887363604423 -0.0003519887363604284 
0 0 0 0 0 0 0 0 
0 0 0 0 0 0 0 0 
0 0 0 0 0 0 0 0 
0 0 0 0 0 0 0 0 
0 0 0 0 0 0 0 0 
0 0 0 0 0 0 0 0 
0 0 0 0 0 0 0 0 
-8.799718409010884e-05 -8.799718409011060e-05 -8.799718409010887e-05 -8.799718409010884e-05 -8.799718409010711e-05 -8.799718409010711e-05 -8.799718409011058e-05 -8.799718409010711e-05 
0 0 0 0 0 0 0 0 
-8.799718409010884e-05 -8.799718409011060e-05 -8.799718409010887e-05 -8.799718409010884e-05 -8.799718409010711e-05 -8.799718409010711e-05 -8.799718409011058e-05 -8.799718409010711e-05 
0 0 0 0 0 0 0 0 
0 0 0 0 0 0 0 0 
0 0 0 0 0 0 0 0 
0 0 0 0 0 0 0 0 
0 0 0 0 0 0 0 0 
-8.799718409010884e-05 -8.799718409011060e-05 -8.799718409010887e-05 -8.799718409010884e-05 -8.799718409010711e-05 -8.799718409010711e-05 -8.799718409011058e-05 -8.799718409010711e-05 
0 0 0 0 0 0 0 0 
0 0 0 0 0 0 0 0 
0 0 0 0 0 0 0 0 
-8.799718409010884e-05 -8.799718409011060e-05 -8.799718409010887e-05 -8.799718409010884e-05 -8.799718409010711e-05 -8.799718409010711e-05 -8.799718409011058e-05 -8.799718409010711e-05 
0 0 0 0 0 0 0 0 
0 0 0 0 0 0 0 0 
0 0 0 0 0 0 0 0 
0 0 0 0 0 0 0 0 
0 0 0 0 0 0 0 0 
0 0 0 0 0 0 0 0 
0 0 0 0 0 0 0 0 
0 0 0 0 0 0 0 0 
0 0 0 0 0 0 0 0 
0 0 0 0 0 0 0 0 
0 0 0 0 0 0 0 0 
0 0 0 0 0 0 0 0 
-8.799718409010884e-05 -8.799718409011060e-05 -8.799718409010887e-05 -8.799718409010884e-05 -8.799718409010711e-05 -8.799718409010711e-05 -8.799718409011058e-05 -8.799718409010711e-05 
0 0 0 0 0 0 0 0 
-0.0001759943681802177 -0.0001759943681802212 -0.0001759943681802177 -0.0001759943681802177 -0.0001759943681802142 -0.0001759943681802142 -0.0001759943681802212 -0.0001759943681802142 
-8.799718409010884e-05 -8.799718409011060e-05 -8.799718409010887e-05 -8.799718409010884e-05 -8.799718409010711e-05 -8.799718409010711e-05 -8.799718409011058e-05 -8.799718409010711e-05 
0 0 0 0 0 0 0 0 
-8.799718409010884e-05 -8.799718409011060e-05 -8.799718409010887e-05 -8.799718409010884e-05 -8.799718409010711e-05 -8.799718409010711e-05 -8.799718409011058e-05 -8.799718409010711e-05 
0 0 0 0 0 0 0 0 
0 0 0 0 0 0 0 0 
0 0 0 0 0 0 0 0 
0 0 0 0 0 0 0 0 
0 0 0 0 0 0 0 0 
0 0 0 0 0 0 0 0 
0 0 0 0 0 0 0 0 
0 0 0 0 0 0 0 0 
0 0 0 0 0 0 0 0 
-8.799718409010884e-05 -8.799718409011060e-05 -8.799718409010887e-05 -8.799718409010884e-05 -8.799718409010711e-05 -8.799718409010711e-05 -8.799718409011058e-05 -8.799718409010711e-05 
-8.799718409010884e-05 -8.799718409011060e-05 -8.799718409010887e-05 -8.799718409010884e-05 -8.799718409010711e-05 -8.799718409010711e-05 -8.799718409011058e-05 -8.799718409010711e-05 
0 0 0 0 0 0 0 0 
0 0 0 0 0 0 0 0 
-0.0001759943681802177 -0.0001759943681802212 -0.0001759943681802177 -0.0001759943681802177 -0.0001759943681802142 -0.0001759943681802142 -0.0001759943681802212 -0.0001759943681802142 
-8.799718409010884e-05 -8.799718409011060e-05 -8.799718409010887e-05 -8.799718409010884e-05 -8.799718409010711e-05 -8.799718409010711e-05 -8.799718409011058e-05 -8.799718409010711e-05 
0 0 0 0 0 0 0 0 
0 0 0 0 0 0 0 0 
0 0 0 0 0 0 0 0 
0 0 0 0 0 0 0 0 
0 0 0 0 0 0 0 0 
0 0 0 0 0 0 0 0 
0 0 0 0 0 0 0 0 
0 0 0 0 0 0 0 0 
0 0 0 0 0 0 0 0 
-8.799718409010884e-05 -8.799718409011060e-05 -8.799718409010887e-05 -8.799718409010884e-05 -8.799718409010711e-05 -8.799718409010711e-05 -8.799718409011058e-05 -8.799718409010711e-05 
0 0 0 0 0 0 0 0 
-8.799718409010884e-05 -8.799718409011060e-05 -8.799718409010887e-05 -8.799718409010884e-05 -8.799718409010711e-05 -8.799718409010711e-05 -8.799718409011058e-05 -8.799718409010711e-05 
0 0 0 0 0 0 0 0 
-8.799718409010884e-05 -8.799718409011060e-05 -8.799718409010887e-05 -8.799718409010884e-05 -8.799718409010711e-05 -8.799718409010711e-05 -8.799718409011058e-05 -8.799718409010711e-05 
-8.799718409010884e-05 -8.799718409011060e-05 -8.799718409010887e-05 -8.799718409010884e-05 -8.799718409010711e-05 -8.799718409010711e-05 -8.799718409011058e-05 -8.799718409010711e-05 
-8.799718409010884e-05 -8.799718409011060e-05 -8.799718409010887e-05 -8.799718409010884e-05 -8.799718409010711e-05 -8.799718409010711e-05 -8.799718409011058e-05 -8.799718409010711e-05 
-8.799718409010884e-05 -8.799718409011060e-05 -8.799718409010887e-05 -8.799718409010884e-05 -8.799718409010711e-05 -8.799718409010711e-05 -8.799718409011058e-05 -8.799718409010711e-05 
0 0 0 0 0 0 0 0 
0 0 0 0 0 0 0 0 
0 0 0 0 0 0 0 0 
0 0 0 0 0 0 0 0 
0 0 0 0 0 0 0 0 
0 0 0 0 0 0 0 0 
-0.0001759943681802177 -0.0001759943681802212 -0.0001759943681802177 -0.0001759943681802177 -0.0001759943681802142 -0.0001759943681802142 -0.0001759943681802212 -0.0001759943681802142 
0 0 0 0 0 0 0 0 
0 0 0 0 0 0 0 0 
0 0 0 0 0 0 0 0 
0 0 0 0 0 0 0 0 
0 0 0 0 0 0 0 0 
0 0 0 0 0 0 0 0 
0 0 0 0 0 0 0 0 
0 0 0 0 0 0 0 0 
0 0 0 0 0 0 0 0 
0 0 0 0 0 0 0 0 
0 0 0 0 0 0 0 0 
0 0 0 0 0 0 0 0 
0 0 0 0 0 0 0 0 
-0.0002639915522703253 -0.0002639915522703320 -0.0002639915522703248 -0.0002639915522703247 -0.0002639915522703194 -0.0002639915522703202 -0.0002639915522703308 -0.0002639915522703204 
0 0 0 0 0 0 0 0 
0 0 0 0 0 0 0 0 
0 0 0 0 0 0 0 0 
-8.799718409010884e-05 -8.799718409011060e-05 -8.799718409010887e-05 -8.799718409010884e-05 -8.799718409010711e-05 -8.799718409010711e-05 -8.799718409011058e-05 -8.799718409010711e-05 
0 0 0 0 0 0 0 0 
0 0 0 0 0 0 0 0 
-8.799718409010884e-05 -8.799718409011060e-05 -8.799718409010887e-05 -8.799718409010884e-05 -8.799718409010711e-05 -8.799718409010711e-05 -8.799718409011058e-05 -8.799718409010711e-05 
0 0 0 0 0 0 0 0 
-8.799718409010884e-05 -8.799718409011060e-05 -8.799718409010887e-05 -8.799718409010884e-05 -8.799718409010711e-05 -8.799718409010711e-05 -8.799718409011058e-05 -8.799718409010711e-05 
0 0 0 0 0 0 0 0 
0 0 0 0 0 0 0 0 
0 0 0 0 0 0 0 0 
-0.0007039774727208707 -0.0007039774727208848 -0.0007039774727208710 -0.0007039774727208707 -0.0007039774727208569 -0.0007039774727208569 -0.0007039774727208846 -0.0007039774727208569 
0 0 0 0 0 0 0 0 
0 0 0 0 0 0 0 0 
0 0 0 0 0 0 0 0 
0 0 0 0 0 0 0 0 
0 0 0 0 0 0 0 0 
-0.0006159802886307645 -0.0006159802886307779 -0.0006159802886307623 -0.0006159802886307628 -0.0006159802886307500 -0.0006159802886307517 -0.0006159802886307788 -0.0006159802886307539 
0 0 0 0 0 0 0 0 
0 0 0 0 0 0 0 0 
0 0 0 0 0 0 0 0 
0 0 0 0 0 0 0 0 
0 0 0 0 0 0 0 0 
-8.799718409010884e-05 -8.799718409011060e-05 -8.799718409010887e-05 -8.799718409010884e-05 -8.799718409010711e-05 -8.799718409010711e-05 -8.799718409011058e-05 -8.799718409010711e-05 
0 0 0 0 0 0 0 0 
0 0 0 0 0 0 0 0 
0 0 0 0 0 0 0 0 
-0.0005279831045406505 -0.0005279831045406640 -0.0005279831045406497 -0.0005279831045406495 -0.0005279831045406388 -0.0005279831045406403 -0.0005279831045406616 -0.0005279831045406408 
0 0 0 0 0 0 0 0 
0 0 0 0 0 0 0 0 
-8.799718409010884e-05 -8.799718409011060e-05 -8.799718409010887e-05 -8.799718409010884e-05 -8.799718409010711e-05 -8.799718409010711e-05 -8.799718409011058e-05 -8.799718409010711e-05 
0 0 0 0 0 0 0 0 
0 0 0 0 0 0 0 0 
0 0 0 0 0 0 0 0 
-8.799718409010884e-05 -8.799718409011060e-05 -8.799718409010887e-05 -8.799718409010884e-05 -8.799718409010711e-05 -8.799718409010711e-05 -8.799718409011058e-05 -8.799718409010711e-05 
0 0 0 0 0 0 0 0 
-8.799718409010884e-05 -8.799718409011060e-05 -8.799718409010887e-05 -8.799718409010884e-05 -8.799718409010711e-05 -8.799718409010711e-05 -8.799718409011058e-05 -8.799718409010711e-05 
0 0 0 0 0 0 0 0 
0 0 0 0 0 0 0 0 
0 0 0 0 0 0 0 0 
0 0 0 0 0 0 0 0 
0 0 0 0 0 0 0 0 
0 0 0 0 0 0 0 0 
0 0 0 0 0 0 0 0 
0 0 0 0 0 0 0 0 
0 0 0 0 0 0 0 0 
0 0 0 0 0 0 0 0 
0 0 0 0 0 0 0 0 
0 0 0 0 0 0 0 0 
0 0 0 0 0 0 0 0 
0 0 0 0 0 0 0 0 
0 0 0 0 0 0 0 0 
0 0 0 0 0 0 0 0 
0 0 0 0 0 0 0 0 
0 0 0 0 0 0 0 0 
0 0 0 0 0 0 0 0 
0 0 0 0 0 0 0 0 
-0.0002639915522703253 -0.0002639915522703320 -0.0002639915522703248 -0.0002639915522703247 -0.0002639915522703194 -0.0002639915522703202 -0.0002639915522703308 -0.0002639915522703204 
0 0 0 0 0 0 0 0 
-8.799718409010884e-05 -8.799718409011060e-05 -8.799718409010887e-05 -8.799718409010884e-05 -8.799718409010711e-05 -8.799718409010711e-05 -8.799718409011058e-05 -8.799718409010711e-05 
0 0 0 0 0 0 0 0 
0 0 0 0 0 0 0 0 
-0.0003519887363604354 -0.0003519887363604424 -0.0003519887363604355 -0.0003519887363604354 -0.0003519887363604284 -0.0003519887363604284 -0.0003519887363604423 -0.0003519887363604284 
0 0 0 0 0 0 0 0 
0 0 0 0 0 0 0 0 
0 0 0 0 0 0 0 0 
-0.0006159802886307645 -0.0006159802886307779 -0.0006159802886307623 -0.0006159802886307628 -0.0006159802886307500 -0.0006159802886307517 -0.0006159802886307788 -0.0006159802886307539 
-8.799718409010884e-05 -8.799718409011060e-05 -8.799718409010887e-05 -8.799718409010884e-05 -8.799718409010711e-05 -8.799718409010711e-05 -8.799718409011058e-05 -8.799718409010711e-05 
0 0 0 0 0 0 0 0 
-8.799718409010884e-05 -8.799718409011060e-05 -8.799718409010887e-05 -8.799718409010884e-05 -8.799718409010711e-05 -8.799718409010711e-05 -8.799718409011058e-05 -8.799718409010711e-05 
0 0 0 0 0 0 0 0 
0 0 0 0 0 0 0 0 
-0.0001759943681802177 -0.0001759943681802212 -0.0001759943681802177 -0.0001759943681802177 -0.0001759943681802142 -0.0001759943681802142 -0.0001759943681802212 -0.0001759943681802142 
0 0 0 0 0 0 0 0 
0 0 0 0 0 0 0 0 
0 0 0 0 0 0 0 0 
